tree
version=v4
num_class=1
num_tree_per_iteration=1
label_index=0
max_feature_idx=0
objective=lambdarank
feature_names=dot_prod
feature_infos=[-0.87805390357971191:1.2382907867431641]
tree_sizes=3589 3596 3587 3590 3588 3585 3581 3580 3578 3601 3584 3596 3594 3577 3590 3598 3606 3593 3603 3594 3602 3608 3608 3605 3589 3605 3605 3604 3606 3591 3609 3614 3613 3608 3607 3620 3612 3605 3608 3596 3606 3608 3600 3608 3616 3614 3620 3612 3614 3618 3614 3606 3612 3625 3625 3615 3629 3623 3624 3633 3636 3633 3637 3628 3629 3622 3637 3623 3631 3630 3621 3635 3624 3632 3626 3631 3623 3635 3620 3626 3632 3611 3620 3624 3632 3642 3637 3637 3635 3627 3626 3638 3636 3629 3627 3627 3632 3656 3636 3647 3645 3648 3657 3640 3647 3648 3641 3654 3657 3647 3654 3655 3653 3657 3646 3646 3664 3652 3651 3674 3646 3655 3664 3671 3670 3669 3655 3681 3659 3667 3678 3662 3681 3665 3671 3677 3669 3670 3689 3664 3670 3679 3665 3686 3677 3678 3682 3682 3684 3668 3684 3680 3680 3673 3683 3683 3683 3679 3685 3676 3687 3686 3680 3690 3689 3678 3697 3685 3685 3688 3699 3693 3687 3685 3693 3677 3682 3681 3699 3703 3701 3687 3694 3697 3692 3705 3699 3696 3704 3702 3704 3703 3702 3698 3705 3698 3699 3695 3700 3696

Tree=0
num_leaves=31
num_cat=0
split_feature=0 0 0 0 0 0 0 0 0 0 0 0 0 0 0 0 0 0 0 0 0 0 0 0 0 0 0 0 0 0
split_gain=1.16846e+06 30708.6 21621.8 3095.21 2401.06 1673.01 1429.89 410.813 277.762 273.907 212.774 208.426 171.938 155.009 132.935 64.7816 43.9981 42.7529 36.5969 27.6838 24.8743 24.8675 24.2319 23.297 20.4758 18.0066 17.6654 17.1878 17.0274 16.7615
threshold=0.070136219263076796 0.14991775155067447 0.042254325002431876 0.10187816619873048 0.23954955488443377 0.028803754597902301 0.055139226838946349 0.085307437926530852 0.12525137513875964 0.37465725839138037 0.18484350293874743 0.04790309630334378 0.017818563617765907 0.064201176166534438 0.036470601335167892 0.073359411209821715 0.11645598709583284 0.27850711345672613 0.090190075337886824 0.031060464680194858 0.20826912671327594 0.023630563169717792 0.049556843936443336 0.13590106368064883 0.057258807122707374 0.48741348087787634 0.046396570280194289 0.039756024256348617 0.080856826156377806 0.16565294563770297
decision_type=2 2 2 2 2 2 2 2 2 2 2 2 2 2 2 2 2 2 2 2 2 2 2 2 2 2 2 2 2 2
left_child=2 3 5 7 10 12 11 15 16 17 29 26 -1 24 19 -2 -5 -6 -9 -7 -12 -14 -13 -10 -8 -11 -4 -16 -17 -3
right_child=1 4 6 8 9 14 13 18 23 25 20 22 21 -15 27 28 -18 -19 -20 -21 -22 -23 -24 -25 -26 -27 -28 -29 -30 -31
leaf_value=-0.099742061935176346 -0.0011725671440753222 0.070071878764803405 -0.060332162593453191 0.042996862243364638 0.090070647532460801 -0.08806601818648585 -0.030189443222148921 0.02125833819435248 0.057214407601912091 0.097992794322740925 0.080859222945363823 -0.04875012888789193 -0.095849993504873582 -0.0090884751958098808 -0.075196483208914255 0.0089597698394167178 0.051373373177549669 0.094805657794684528 0.02997793906827147 -0.08147938613680511 0.085778482607400994 -0.091791942743833968 -0.039796932381872784 0.063374276730148213 -0.022402477133340967 0.099656010862559555 -0.052388424694083426 -0.068811772553170739 0.015263794934076307 0.07480549448524336
leaf_weight=132932.6768896963 1365.0681215373334 3558.8023814705666 2743.3436169569031 4380.942615820677 6778.2734726490453 2354.8007238886203 1125.3016719806474 1756.1398784614867 2782.8273049496929 19488.450478537998 4605.8925078092725 995.20353724365123 9293.5292623736896 2639.4592165126815 2553.7195544634887 2999.439560172148 2441.1801619270118 16067.788383300591 3822.8738279661047 4946.0387914833846 5812.9821481169201 6357.8155801835237 3140.8022531766328 3423.0743495769566 3379.4470588823897 98637.457011644088 939.56067568698199 1795.0201479821699 1666.1711968317395 3941.1030350987567
leaf_count=6658161 39291 48296 114136 84878 63041 112302 39533 42084 45304 147624 51883 38718 457926 80867 114300 80026 42897 132904 85079 227641 58831 307651 116936 51200 113099 715903 37503 77964 42123 50107
internal_value=1.38076e-10 0.0881673 -0.0923602 0.0362278 0.096221 -0.0977279 -0.03488 0.0174544 0.0529575 0.0984124 0.0789811 -0.0496546 -0.0991584 -0.0187101 -0.0794816 0.00840797 0.0459943 0.0934008 0.0272332 -0.0836038 0.0836038 -0.0942016 -0.0419512 0.0606121 -0.0243477 0.0993816 -0.0583056 -0.0725611 0.011211 0.0725593
internal_weight=358725 183528 175197 24637.7 158891 160234 14963.1 11609.7 13028 140972 17918.8 7818.91 148584 7144.21 11649.6 6030.68 6822.12 22846.1 5579.01 7300.84 10418.9 15651.3 4136.01 6205.9 4504.75 118126 3682.9 4348.74 4665.61 7499.91
internal_count=10278208 1781471 8496737 512882 1268589 7955945 540792 288603 224279 1059472 209117 307293 7423738 233499 532207 161440 127775 195945 127163 339943 110714 765577 155654 96504 152632 863527 151639 192264 122149 98403
is_linear=0
shrinkage=0.05


Tree=1
num_leaves=31
num_cat=0
split_feature=0 0 0 0 0 0 0 0 0 0 0 0 0 0 0 0 0 0 0 0 0 0 0 0 0 0 0 0 0 0
split_gain=1.64377e+06 79038.5 68952.9 8030.42 5488.23 4819.78 3577.61 924.277 707.796 688.388 668.397 629.243 526.118 361.668 243.35 169.641 165.236 142.491 118.668 110.534 81.399 65.0183 39.2446 34.2431 32.929 30.7767 28.2919 21.6425 18.8332 16.5968
threshold=0.11645598709583284 0.27850711345672613 0.042254325002431876 0.42828112840652471 0.18484350293874743 0.073359411209821715 0.024807170033454898 0.37465725839138037 0.053160659968853004 0.14991775155067447 0.23954955488443377 0.48741348087787634 0.090190075337886824 0.033621761947870261 0.017818563617765907 0.60635584592819225 0.32406619191169744 0.20826912671327594 0.064201176166534438 0.13590106368064883 0.16565294563770297 0.095665354281663909 0.028079895302653316 0.076875746250152602 0.10899714380502702 0.04790309630334378 0.12525137513875964 0.037505438551306731 0.059362392872571952 0.085307437926530852
decision_type=2 2 2 2 2 2 2 2 2 2 2 2 2 2 2 2 2 2 2 2 2 2 2 2 2 2 2 2 2 2
left_child=2 4 6 7 9 8 14 16 25 19 17 -5 23 22 -1 -13 -3 -6 28 26 -11 -14 -8 -7 -23 -4 -2 -15 -10 -25
right_child=1 3 5 11 10 12 13 -9 18 20 -12 15 21 27 -16 -17 -18 -19 -20 -21 -22 24 -24 29 -26 -27 -28 -29 -30 -31
leaf_value=-0.091251201235750617 -0.00014290537979499927 0.059269968198210211 -0.05551281829712898 0.080193901278824892 0.030228237921977864 -0.027317437645276877 -0.079537837147076698 0.07607513302327297 -0.04249658626455266 0.016120887219275178 0.048280464051044573 0.087478035735417861 -0.014484850927612159 -0.066952084700908451 -0.085120531705561941 0.090608992051373904 0.066296767704575502 0.038181387842782702 -0.032253814187365906 0.010532877474710387 0.023163455736132987 -0.0088309438303358322 -0.074394726105173614 -0.022532358047660767 -0.0034705662740126017 -0.050312025200951085 0.0049562925896195426 -0.062542464069095444 -0.038059406194768101 -0.01817298937550935
leaf_weight=240134.19540661998 5052.147587359359 17726.900971123665 6187.4142834019658 18579.629478762101 10141.31307901338 2736.7230824827129 6312.5693824753216 20427.200367992868 5768.8487093590411 7695.6475526890208 14832.063698565315 58995.748813537299 3773.853891337676 5387.1443857931554 17356.57162974024 162231.63147103664 15843.59856860798 12665.394890134161 7323.5079316964839 7341.122715663274 8788.6516868865656 8464.4755027085084 8993.3473479789391 6089.1906058220957 4330.9409190133301 5265.2708293365213 5893.2375345863693 5755.2703718769117 4084.5816337143733 3403.7585071930225
leaf_count=6658161 42897 65204 151639 77756 51883 39143 191969 69868 115128 48296 63041 162196 42350 150673 535304 553707 67700 58831 120158 51200 50107 86495 265033 83006 41112 116775 45304 154805 76383 42084
internal_value=2.45467e-11 0.0735776 -0.078933 0.0851093 0.0267876 -0.028966 -0.0890392 0.0676891 -0.0434938 0.0124658 0.0400182 0.0890318 -0.0145236 -0.0715272 -0.090838 0.089774 0.0625863 0.0346449 -0.0370744 0.00578622 0.0198757 -0.00871757 -0.0765159 -0.0223899 -0.00701658 -0.0531218 0.00260262 -0.0646744 -0.0406572 -0.0209693
internal_weight=707582 366214 341368 293805 72409.6 57428.6 283939 53997.7 28629.6 34770.8 37638.8 239807 28798.9 26448.3 257491 221227 33570.5 22806.7 17176.9 18286.5 16484.3 16569.3 15305.9 12229.7 12795.4 11452.7 10945.4 11142.4 9853.43 9492.95
internal_count=10278208 1407990 8870218 996431 411559 914273 7955945 202772 580083 237804 173755 793659 334190 762480 7193465 715903 132904 110714 311669 139401 98403 169957 457002 164233 127607 268414 88201 305478 191511 125090
is_linear=0
shrinkage=0.05


Tree=2
num_leaves=31
num_cat=0
split_feature=0 0 0 0 0 0 0 0 0 0 0 0 0 0 0 0 0 0 0 0 0 0 0 0 0 0 0 0 0 0
split_gain=1.35045e+06 52386.9 40373.9 6517.18 4691.21 3188.25 2356.05 719.981 698.824 570.586 557.489 554.233 239.186 233.649 176.364 129.295 84.5548 68.9379 56.5749 54.0973 53.1915 50.1692 47.1543 39.276 33.7664 30.4823 23.822 20.2008 13.1338 11.626
threshold=0.095665354281663909 0.23954955488443377 0.041057424619793899 0.42828112840652471 0.14991775155067447 0.067027013748884215 0.023630563169717792 0.32406619191169744 0.60635584592819225 0.18484350293874743 0.053160659968853004 0.12525137513875964 0.076875746250152602 0.032770292833447463 0.017818563617765907 0.10899714380502702 0.20826912671327594 0.27850711345672613 0.04790309630334378 0.48741348087787634 0.059362392872571952 0.085307437926530852 0.16565294563770297 0.13590106368064883 0.37465725839138037 0.02668743766844273 0.0096687097102403658 0.035498037934303291 0.71261242032051098 0.11645598709583284
decision_type=2 2 2 2 2 2 2 2 2 2 2 2 2 2 2 2 2 2 2 2 2 2 2 2 2 2 2 2 2 2
left_child=2 4 6 7 11 10 14 17 19 22 18 15 -7 25 26 -2 -11 -3 -4 -5 -12 -14 -6 -13 -9 -8 -1 -15 -10 -17
right_child=1 3 5 8 9 12 13 24 28 16 20 23 21 27 -16 29 -18 -19 -20 -21 -22 -23 -24 -25 -26 -27 -28 -29 -30 -31
leaf_value=-0.085348914148277583 0.00055108152583629121 0.054665251263264006 -0.053263671096674438 0.075108050135279839 0.028581961702829735 -0.02271416920410653 -0.075688330132590187 0.066719747036257618 0.083094500543517372 0.041166215327141799 -0.038634334319008243 0.016527680597885307 -0.014548548668490594 -0.066141003722591171 -0.079361678669918168 0.0076328369483059672 0.047775740832817 0.059718499800086589 -0.046311220003359264 0.078379981822343917 -0.03178807754603153 -0.0080366773536810245 0.034365571453281223 0.022420448412841319 0.069970862649076523 -0.071143029845986389 -0.083870189225141126 -0.06157052856079992 0.084053411591826083 0.011383804878794689
leaf_weight=192517.97654373074 7455.9147410419901 12877.660594128851 7190.3009540423809 18624.009502121997 6599.2900961923115 7011.6024250799419 5924.27275737337 15494.599288220288 53542.441923553459 8700.3558609832107 5383.5230526476007 5109.7232300652468 5536.9314797507941 3781.3139920338035 14033.023047261173 3891.1335070751011 10902.151499218442 14182.297474124662 4933.9693748654172 39271.807914766607 5998.1033118722007 6349.7599799021809 7563.1977145329874 6331.4211843217818 16482.108855690676 9774.4534135097601 31724.019489541242 6703.5531084687409 107209.28634692884 4403.6605511017151
leaf_count=5722450 86495 63041 188197 77756 48296 119240 191653 67700 159525 51883 115128 45304 83006 113096 457926 41112 58831 65204 116775 162196 116444 84434 50107 51200 69868 305959 935711 192592 394182 42897
internal_value=-8.00464e-11 0.0688434 -0.0759727 0.0780574 0.0268698 -0.0306806 -0.083235 0.0633161 0.0820376 0.0393174 -0.0429738 0.0114132 -0.0153902 -0.0689983 -0.0847994 0.00532926 0.0448422 0.0573137 -0.0504344 0.0773275 -0.0350264 -0.01107 0.0316706 0.0197887 0.0683955 -0.0728583 -0.0851397 -0.0632188 0.083734 0.00962421
internal_weight=645504 338641 306863 277684 60956.8 42404.2 264459 59036.7 218648 33765 23505.9 27191.9 18898.3 26183.6 238275 15750.7 19602.5 27060 12124.3 57895.8 11381.6 11886.7 14162.5 11441.1 31976.7 15698.7 224242 10484.9 160752 8294.79
internal_count=10278208 1535597 8742611 1059472 476125 823224 7919387 265813 793659 209117 536544 267008 286680 803300 7116087 170504 110714 128245 304972 239952 231572 167440 98403 96504 137568 497612 6658161 305688 553707 84009
is_linear=0
shrinkage=0.05


Tree=3
num_leaves=31
num_cat=0
split_feature=0 0 0 0 0 0 0 0 0 0 0 0 0 0 0 0 0 0 0 0 0 0 0 0 0 0 0 0 0 0
split_gain=1.12133e+06 44052 35243.2 5604.03 3476.66 2552.58 2282.39 824.978 612.066 562.357 402.469 241.943 233.337 219.466 198.922 98.3406 96.3876 93.2988 61.9471 57.2535 55.7906 47.6147 44.9532 42.8966 41.4312 31.5142 30.0692 29.68 19.7556 18.3988
threshold=0.095665354281663909 0.27850711345672613 0.042254325002431876 0.16565294563770297 0.42828112840652471 0.067027013748884215 0.024230727925896648 0.12525137513875964 0.60635584592819225 0.20826912671327594 0.053160659968853004 0.014140451326966287 0.32406619191169744 0.033621761947870261 0.080856826156377806 0.14991775155067447 0.10899714380502702 0.23954955488443377 0.71261242032051098 0.18484350293874743 0.48741348087787634 0.37465725839138037 0.049556843936443336 0.059362392872571952 0.073359411209821715 0.028803754597902301 0.13590106368064883 0.090190075337886824 0.0096687097102403658 0.039756024256348617
decision_type=2 2 2 2 2 2 2 2 2 2 2 2 2 2 2 2 2 2 2 2 2 2 2 2 2 2 2 2 2 2
left_child=2 3 6 7 12 10 11 16 20 19 22 28 -3 25 24 26 -2 -11 -10 -5 -6 -14 -4 -12 -7 -8 -9 -16 -1 -15
right_child=1 4 5 9 8 14 13 15 18 17 23 -13 21 29 27 -17 -18 -19 -20 -21 -22 -23 -24 -25 -26 -27 -28 -29 -30 -31
leaf_value=-0.080536556274512602 0.0012979851121106664 0.055931919579917992 -0.048301568312934501 0.031811125269871843 0.070075603987100207 -0.02205962635492929 -0.069892951563530661 0.015768101556637146 0.076805867996709812 0.043946179053381093 -0.035609647247418739 -0.075200157164210468 0.061799045336779747 -0.059469142798877411 -0.010190304386631127 0.026539688770530135 0.009319020852415023 0.050389465900862643 0.079140371279910277 0.037904040179904508 0.073492075835455292 0.065766434435172938 -0.041155851609430812 -0.02931271217576081 -0.015361587639038382 -0.065282593619468185 0.021048830038615143 -0.0041225615642540075 -0.078716807174861833 -0.054630900276363331
leaf_weight=183920.77709318267 7109.5168742412934 13464.617425362696 7119.1867721720264 7208.6993097211089 17602.426446258141 4379.8520324270939 7930.185754515127 4872.7266155087709 37847.873857099126 10381.267456270336 5137.2090466756417 25305.779868744547 14677.108304609719 7423.8134122915799 5649.4882353724461 6290.479433695793 7915.3713384283474 12245.29416097885 114035.97344805498 8289.0034850836455 37207.827738888016 15601.551006956346 3185.8837735639099 5711.6278047279338 4882.2942901028 6959.5426943999246 6033.7304998560721 3132.9752387067929 16230.621228519769 2672.260947057086
leaf_count=5722450 86495 65204 190357 50107 77756 80097 267830 45304 159525 58831 115128 870702 67700 227514 84207 48296 84009 63041 394182 51883 162196 69868 78057 116444 80026 226729 51200 42350 562756 77964
internal_value=-3.29104e-10 0.0643939 -0.0713174 0.0294335 0.074214 -0.0272318 -0.0782176 0.0140829 0.0769242 0.0424075 -0.0390161 -0.0798066 0.0614081 -0.0638794 -0.0134169 0.021561 0.00552361 0.0474332 0.0785586 0.0350699 0.0723949 0.0638433 -0.0460924 -0.0322945 -0.0185289 -0.067738 0.0186895 -0.00802575 -0.080389 -0.0581885
internal_weight=610425 320783 289641 70346.1 250437 39198.5 250443 32221.8 206694 38124.3 21153.9 225457 43743.3 24985.8 18044.6 17196.9 15024.9 22626.6 151884 15497.7 54810.3 30278.7 10305.1 10848.8 9262.15 14889.7 10906.5 8782.46 200151 10096.1
internal_count=10278208 1535597 8742611 539166 996431 786666 7955945 315304 793659 223862 499986 7155908 202772 800037 286680 144800 170504 121872 553707 101990 239952 137568 268414 231572 160123 494559 96504 126557 6285206 305478
is_linear=0
shrinkage=0.05


Tree=4
num_leaves=31
num_cat=0
split_feature=0 0 0 0 0 0 0 0 0 0 0 0 0 0 0 0 0 0 0 0 0 0 0 0 0 0 0 0 0 0
split_gain=958266 39554.2 31193.3 4739.67 3240.21 2201.74 2084.11 688.607 486.851 463.67 293.323 264.378 255.829 215.753 215.035 82.5079 81.684 80.1562 78.7199 59.0701 51.2618 48.3848 44.8312 36.2095 27.8258 26.2792 25.0267 24.5396 22.2879 17.9481
threshold=0.095665354281663909 0.27850711345672613 0.042254325002431876 0.16565294563770297 0.48741348087787634 0.064201176166534438 0.023630563169717792 0.12525137513875964 0.20826912671327594 0.37465725839138037 0.60635584592819225 0.05128175579011441 0.076875746250152602 0.032770292833447463 0.014140451326966287 0.23954955488443377 0.14991775155067447 0.32406619191169744 0.10899714380502702 0.71261242032051098 0.42828112840652471 0.18484350293874743 0.085307437926530852 0.057258807122707374 0.070136219263076796 0.036470601335167892 0.13590106368064883 0.02668743766844273 0.044950058683753021 0.10187816619873048
decision_type=2 2 2 2 2 2 2 2 2 2 2 2 2 2 2 2 2 2 2 2 2 2 2 2 2 2 2 2 2 2
left_child=2 3 6 7 9 11 14 18 21 17 -6 28 24 27 -1 -10 26 -3 29 -12 -11 -5 -14 -13 -7 -15 -9 -8 -4 -2
right_child=1 4 5 8 10 12 13 16 15 20 19 23 22 25 -16 -17 -18 -19 -20 -21 -22 -23 -24 -25 -26 -27 -28 -29 -30 -31
leaf_value=-0.076487968893843822 -0.0016582016634145809 0.052418674847553151 -0.048236217152490296 0.029277644868973985 0.069515668705953201 -0.023333795922955966 -0.067407844988053425 0.014378028891269087 0.040681930825646001 0.062034631769887133 0.072830117971635092 -0.035563377562889568 -0.012250410897598388 -0.058242490039913969 -0.071357915979607264 0.046848716748572279 0.024344245902377971 0.057868531654505895 0.0083538590143175783 0.075162878465696414 0.066059009330724061 0.034968461711223101 -0.0058603960103501065 -0.029580079344925306 -0.017612448401511643 -0.053261349956360171 0.01926677049154529 -0.063129825096588973 -0.042719139962226656 0.0034388063193259728
leaf_weight=190101.66296696241 3302.2008625182716 12952.636867878096 2696.5844205370995 6988.2045619408782 35583.676797599182 4121.034266332219 5379.5578959214199 4733.5741834626606 10033.006999714355 14937.618934632381 36143.891464181361 4923.3821605688099 5148.740405083623 4612.2486314000816 22886.28650750278 11806.997450112602 6102.6986694438529 14082.335288862687 7705.3886056067349 108904.44383900572 16826.323415304432 8023.5013795128434 5878.9688619656517 5198.5297840445928 4387.9765431670821 6216.9701719749391 5857.1603629961173 8894.6090591387092 5700.1777993401556 3621.0545398632603
leaf_count=6285206 42729 65204 76223 50107 162196 80867 191653 45304 58831 69868 159525 117980 83006 149982 830881 63041 48296 67700 84009 394182 77756 51883 84434 113099 78434 192264 51200 305959 152623 43766
internal_value=-1.22049e-10 0.0606978 -0.0676123 0.0270968 0.070265 -0.0255789 -0.0743307 0.0127967 0.0392512 0.0600702 0.0735836 -0.0379317 -0.0138698 -0.0607047 -0.0759367 0.0440158 0.0197367 0.0552575 0.00487715 0.0745816 0.0641665 0.0323193 -0.00884384 -0.0324904 -0.0203834 -0.0553829 0.0170817 -0.0647421 -0.0444909 0.00100767
internal_weight=583751 307605 276147 68173.8 239431 38055.4 238091 31322.1 36851.7 58798.9 180632 18518.7 19536.7 25103.4 212988 21840 16693.4 27035 14628.6 145048 31763.9 15011.7 11027.7 10121.9 8509.01 10829.2 10590.7 14274.2 8396.76 6923.26
internal_count=10278208 1535597 8742611 539166 996431 786666 7955945 315304 223862 280528 715903 459925 326741 839858 7116087 121872 144800 132904 170504 553707 147624 101990 167440 231079 159301 342246 96504 497612 228846 86495
is_linear=0
shrinkage=0.05


Tree=5
num_leaves=31
num_cat=0
split_feature=0 0 0 0 0 0 0 0 0 0 0 0 0 0 0 0 0 0 0 0 0 0 0 0 0 0 0 0 0 0
split_gain=833153 36453.4 28052.4 4132.89 3105.02 2082.81 1728.3 589.798 439.29 434.678 286.219 285.245 218.677 195.993 162.928 74.7975 71.6143 70.7119 70.2166 56.4983 46.1443 42.445 38.2054 30.9246 30.77 26.9283 25.2275 23.1794 21.4992 19.9773
threshold=0.095665354281663909 0.27850711345672613 0.041057424619793899 0.16565294563770297 0.48741348087787634 0.064201176166534438 0.022530753165483478 0.12525137513875964 0.37465725839138037 0.20826912671327594 0.05128175579011441 0.60635584592819225 0.076875746250152602 0.031060464680194858 0.014140451326966287 0.23954955488443377 0.32406619191169744 0.11645598709583284 0.14991775155067447 0.71261242032051098 0.42828112840652471 0.18484350293874743 0.090190075337886824 0.044950058683753021 0.057258807122707374 0.035498037934303291 0.10187816619873048 0.070136219263076796 0.13590106368064883 0.0096687097102403658
decision_type=2 2 2 2 2 2 2 2 2 2 2 2 2 2 2 2 2 2 2 2 2 2 2 2 2 2 2 2 2 2
left_child=2 3 6 7 8 10 14 17 16 21 23 -6 27 -8 29 -11 -3 26 28 -13 -10 -5 -14 -4 -12 -15 -2 -7 -9 -1
right_child=1 4 5 9 11 12 13 18 20 15 24 19 22 25 -16 -17 -18 -19 -20 -21 -22 -23 -24 -25 -26 -27 -28 -29 -30 -31
leaf_value=-0.073427529679592513 -0.0017274036549799197 0.049356364071214451 -0.046399991966340426 0.027003628946998426 0.066238722415113291 -0.022163391388585044 -0.062948183164577357 0.012993011641990383 0.058856576437877062 0.037868962297694535 -0.03358921523844096 0.06958885414447559 -0.010499660500858467 -0.056577837497670959 -0.068500596117319623 0.043826472897628636 0.054598358301430741 0.0097548962680116327 0.022332850397556551 0.071919854678740153 0.062752220587601382 0.032399822967513037 -0.0038542092327333122 -0.040542481079030246 -0.028009432329147339 -0.051738201282084118 0.0035990561854886368 -0.016886854274657078 0.017572183398408242 -0.071515015712505098
leaf_weight=166104.88398714043 3234.5144775164808 12526.270060754363 3797.116838604732 6824.0391841177589 34145.105213735485 4033.8368956198465 13547.619511536888 4636.7732605379133 14362.222620871951 9758.6742253629964 4803.4781255723465 34617.172867010988 7835.616584021107 5557.5117336453895 19869.628365028533 11450.832696871039 13578.055398328175 4009.966672863462 5965.7621949677196 104368.29977842607 16148.385306159355 7820.1424414743742 2987.373210757316 5542.0844678836766 5087.7812321394704 5953.0327509669842 7108.3651605895029 4300.0657388196814 5731.8280549573137 14877.21993646503
leaf_count=5722450 42729 65204 112781 50107 162196 80867 496274 45304 69868 58831 117980 159525 125090 190755 754560 63041 67700 42897 48296 394182 77756 51883 42350 152623 113099 192592 84878 78434 51200 562756
internal_value=-2.24736e-10 0.0575708 -0.0645389 0.0249825 0.0670094 -0.0250221 -0.0712537 0.0115133 0.0568445 0.0365108 -0.0366464 0.0703333 -0.0133531 -0.0588722 -0.0727985 0.0410854 0.052083 0.00411855 0.018011 0.0713393 0.0609184 0.0298853 -0.00866538 -0.042924 -0.0307191 -0.0540749 0.00193332 -0.0194408 0.0155244 -0.0732703
internal_weight=560584 296286 264297 66540.9 229746 38387.4 225910 30687.2 56614.9 35853.7 19230.5 173131 19156.9 25058.2 200852 21209.5 26104.3 14352.8 16334.4 138985 30510.6 14644.2 10823 9339.2 9891.26 11510.5 10342.9 8333.9 10368.6 180982
internal_count=10278208 1535597 8742611 539166 996431 823224 7919387 315304 280528 223862 496483 715903 326741 879621 7039766 121872 132904 170504 144800 553707 147624 101990 167440 265404 231079 383347 127607 159301 96504 6285206
is_linear=0
shrinkage=0.05


Tree=6
num_leaves=31
num_cat=0
split_feature=0 0 0 0 0 0 0 0 0 0 0 0 0 0 0 0 0 0 0 0 0 0 0 0 0 0 0 0 0 0
split_gain=732972 34137.8 25607.6 3662.06 3023.21 1813.02 1648.03 512.299 422.029 394.883 281.353 253.257 188.882 175.328 151.112 68.8345 66.2047 61.498 60.4648 54.6249 43.157 38.4259 37.9415 30.1673 26.7109 25.0052 22.0942 19.3599 19.1173 18.756
threshold=0.095665354281663909 0.27850711345672613 0.041057424619793899 0.16565294563770297 0.48741348087787634 0.064201176166534438 0.022530753165483478 0.12525137513875964 0.37465725839138037 0.20826912671327594 0.60635584592819225 0.05128175579011441 0.076875746250152602 0.031060464680194858 0.014140451326966287 0.23954955488443377 0.32406619191169744 0.14991775155067447 0.10899714380502702 0.71261242032051098 0.42828112840652471 0.085307437926530852 0.18484350293874743 0.055139226838946349 0.044950058683753021 0.035498037934303291 0.073359411209821715 0.0096687097102403658 0.02668743766844273 0.13590106368064883
decision_type=2 2 2 2 2 2 2 2 2 2 2 2 2 2 2 2 2 2 2 2 2 2 2 2 2 2 2 2 2 2
left_child=2 3 6 7 8 11 14 18 16 22 -6 24 26 28 27 -11 -3 29 -2 -12 -10 -14 -5 -13 -4 -15 -7 -1 -8 -9
right_child=1 4 5 9 10 12 13 17 20 15 19 23 21 25 -16 -17 -18 -19 -20 -21 -22 -23 -24 -25 -26 -27 -28 -29 -30 -31
leaf_value=-0.07076862755512324 -6.3250279331241655e-05 0.046669368604225991 -0.044167023638930374 0.024970006434404328 0.063480512843494805 -0.020228052411107408 -0.062027449687450512 0.011712409454835176 0.056114709572999515 0.03539901339490964 0.066892157965664834 -0.033376846501529188 -0.011776995888423477 -0.054133924005775651 -0.065916364426338581 0.04118889694283473 0.051792601259149453 0.020524379744865866 0.006486641586840064 0.069233612343440443 0.05995592769795402 -0.0057630786045482591 0.030125651327384484 -0.027381703983117817 -0.038650509522640951 -0.049393540413320641 -0.014351711447827507 -0.068841578418696384 -0.058185469370499267 0.016025240249706332
leaf_weight=158160.74094490794 6689.0502195564586 12143.082862398122 3692.1351514886992 6689.3949330010219 32788.192987014219 6019.8985420218196 6900.2613674389468 4562.6995682589186 13829.669495782626 9522.8863724516013 33164.450795506826 3068.8370516819996 4987.6193059369252 5368.5648413443869 19044.304745239264 11136.852907891021 13117.769807679055 5855.905165121374 7445.4167248448721 100068.85861360299 15516.439520496424 5682.0980253777452 7648.9131806356781 6635.3303285255461 5409.0087553713493 5773.8126989190278 2178.4146687878674 14203.871898224228 6100.3287639397768 5633.294710992599
leaf_count=5722450 86495 65204 112781 50107 162196 120158 267974 45304 69868 58831 159525 78447 83006 190755 754560 63041 67700 48296 84009 394182 77756 84434 51883 152632 152623 192592 39143 562756 228300 51200
internal_value=2.35949e-11 0.0548803 -0.0619429 0.0230892 0.064273 -0.0239099 -0.0685901 0.0103284 0.0540675 0.0340956 0.0676297 -0.0348969 -0.0129595 -0.05628 -0.0701428 0.0385201 0.0493298 0.0164407 0.00338695 0.0686508 0.0581457 -0.00857432 0.0277203 -0.0292776 -0.0408884 -0.0516775 -0.0186666 -0.0706098 -0.0602247 0.0140953
internal_weight=539038 285813 253225 65184.4 220628 37673.3 215552 30186.4 54607 34998 166022 18805.3 18868 24143 191409 20659.7 25260.9 16051.9 14134.5 133233 29346.1 10669.7 14338.3 9704.17 9101.14 11142.4 8198.31 172365 13000.6 10196
internal_count=10278208 1535597 8742611 539166 996431 823224 7919387 315304 280528 223862 715903 496483 326741 879621 7039766 121872 132904 144800 170504 553707 147624 167440 101990 231079 265404 383347 159301 6285206 496274 96504
is_linear=0
shrinkage=0.05


Tree=7
num_leaves=31
num_cat=0
split_feature=0 0 0 0 0 0 0 0 0 0 0 0 0 0 0 0 0 0 0 0 0 0 0 0 0 0 0 0 0 0
split_gain=650218 32339.2 23644.9 3283 2976.85 1769.69 1401.46 450.528 409.249 362.413 280.554 223.113 220.669 168.276 106.34 63.93 62.4189 54.5416 54.5005 53.4187 49.8249 41.2697 34.325 25.552 20.7066 20.6467 19.8102 19.3362 18.3679 16.5624
threshold=0.095665354281663909 0.27850711345672613 0.039756024256348617 0.16565294563770297 0.48741348087787634 0.061747688800096519 0.02095863223075867 0.12525137513875964 0.37465725839138037 0.20826912671327594 0.60635584592819225 0.073359411209821715 0.049556843936443336 0.030293190851807598 0.011316516902297737 0.23954955488443377 0.32406619191169744 0.11645598709583284 0.14991775155067447 0.71261242032051098 0.085307437926530852 0.42828112840652471 0.18484350293874743 0.055139226838946349 0.10187816619873048 0.034544339403510101 0.043585527688264854 0.02668743766844273 0.91175416111946117 0.13590106368064883
decision_type=2 2 2 2 2 2 2 2 2 2 2 2 2 2 2 2 2 2 2 2 2 2 2 2 2 2 2 2 2 2
left_child=2 3 6 7 8 12 14 17 16 22 -6 -7 26 27 -1 -11 -3 24 29 -12 -13 -10 -5 -14 -2 -15 -4 -8 -21 -9
right_child=1 4 5 9 10 11 13 18 21 15 19 20 23 25 -16 -17 -18 -19 -20 28 -22 -23 -24 -25 -26 -27 -28 -29 -30 -31
leaf_value=-0.068484585609889209 -0.0026130756872619534 0.044281332147371288 -0.043612604463698572 0.023141442762052565 0.061118737298812002 -0.020299878531773834 -0.060186726292424532 0.010538213236147195 0.053714541389320317 0.033197862080875801 0.064612070275690131 -0.01225544104422664 -0.032452511711587695 -0.052835885390425545 -0.064878873570491685 0.038846594808055544 0.049335992308066609 0.0077129509067004861 0.01889290142275717 0.067301838562851227 -0.0059474438260249361 0.057544308216762201 0.028092198727102398 -0.027196490089441545 0.0022770736908170725 -0.048402910827097391 -0.038772597911192967 -0.056322629407502517 0.065496938783988143 0.014620523234660912
leaf_weight=155830.15864951143 3150.4028633005364 11782.610824189091 3601.4892494608757 6570.2674235201812 31468.97341344523 7594.7043615188704 9488.1309034463084 4499.1875693456095 13319.693269436102 9307.4835498939428 31743.729047424305 7076.236621472839 4402.7534896420075 5091.542641273074 23536.741068442381 10845.498693486144 12680.858902044842 3897.8636419426621 5760.2113968461053 78691.317075070285 5613.9580513921974 14907.185982080395 7495.0251923857977 4870.123790261885 6918.9196200729384 5425.6149008396387 5119.2928596888814 4914.4462375426556 17171.94796568912 5548.7434673671851
leaf_count=5945493 42729 65204 116488 50107 162196 157624 385642 45304 69868 58831 159525 122149 116936 189535 976605 63041 67700 42897 48296 316053 84434 77756 51883 115166 84878 189139 151833 191567 78129 51200
internal_value=3.28051e-11 0.0525227 -0.0597104 0.0213748 0.0619353 -0.023647 -0.0664678 0.00923425 0.0516348 0.031939 0.0653471 -0.0135215 -0.0350618 -0.0553572 -0.0680114 0.0362378 0.0469015 0.00269107 0.0150154 0.0663898 -0.00946487 0.0557371 0.0257796 -0.029692 0.000747086 -0.050549 -0.0407714 -0.0588682 0.0669785 0.0127926
internal_weight=518325 275760 242565 63993.6 211766 38278.6 204287 29775.3 52690.3 34218.3 159076 20284.9 17993.7 24919.7 179367 20153 24463.5 13967.2 15808.1 127607 12690.2 28226.9 14065.3 9272.88 10069.3 10517.2 8720.78 14402.6 95863.3 10047.9
internal_count=10278208 1535597 8742611 539166 996431 864630 7877981 315304 280528 223862 715903 364207 500423 955883 6922098 121872 132904 170504 144800 553707 206583 147624 101990 232102 127607 378674 268321 577209 394182 96504
is_linear=0
shrinkage=0.05


Tree=8
num_leaves=31
num_cat=0
split_feature=0 0 0 0 0 0 0 0 0 0 0 0 0 0 0 0 0 0 0 0 0 0 0 0 0 0 0 0 0 0
split_gain=580432 30831.5 22038.9 2960.87 2946.13 1582.07 1367.21 399.293 398.055 334.906 278.781 193.603 193.548 157.49 105.222 64.856 74.2649 59.7346 59.5301 48.6791 47.4037 40.0793 31.313 30.3357 27.9532 20.5969 20.2073 19.7284 17.0986 14.6606
threshold=0.095665354281663909 0.27850711345672613 0.039756024256348617 0.16565294563770297 0.48741348087787634 0.061747688800096519 0.02095863223075867 0.37465725839138037 0.12525137513875964 0.20826912671327594 0.60635584592819225 0.049556843936443336 0.076875746250152602 0.030293190851807598 0.011316516902297737 0.91175416111946117 0.71261242032051098 0.23954955488443377 0.32406619191169744 0.14991775155067447 0.10899714380502702 0.42828112840652471 0.18484350293874743 0.067027013748884215 0.090190075337886824 0.055139226838946349 0.043585527688264854 0.034544339403510101 0.02668743766844273 0.13590106368064883
decision_type=2 2 2 2 2 2 2 2 2 2 2 2 2 2 2 2 2 2 2 2 2 2 2 2 2 2 2 2 2 2
left_child=2 3 6 8 7 11 14 18 20 22 -6 26 23 28 -1 16 -12 -11 -3 29 -2 -9 -5 -7 -14 -13 -4 -15 -8 -10
right_child=1 4 5 9 10 12 13 21 19 17 15 25 24 27 -16 -17 -18 -19 -20 -21 -22 -23 -24 -25 -26 -27 -28 -29 -30 -31
leaf_value=-0.066599713061223947 -0.001011557339815571 0.042146848134507947 -0.042026039769591267 0.021497640885925717 0.05908321655537413 -0.021972238231691043 -0.05811378785942909 0.051594659086127238 0.0094882040712024936 0.031226298645126351 0.062686433960640914 -0.03112059917389905 -0.01002277700761784 -0.050919990180150469 -0.06292492882026994 0.060626141920254187 0.065583870641157824 0.036751853798680532 0.047162149362966532 0.017428834508118527 0.0048560407959550795 0.055443518229845237 0.026268828483111042 -0.016135655355499292 -0.0042301711024142485 -0.02635506861383094 -0.037073150010926287 -0.046512942168086373 -0.054405574759589619 0.013354017280931408
leaf_weight=148118.21189071093 6539.0777739210498 11436.799394975118 3502.209355985975 6460.9910981413523 30175.74938258552 3499.8282538277053 9067.1136241462973 12823.842002984122 4443.7925142640888 9105.3380642275879 30347.886241394968 4316.8737030214324 7552.6192355055937 4912.1407737649515 22429.650989409012 10162.883746676409 81525.693877800077 10568.188452945957 12258.69303234254 5673.3693963282494 7268.069035372595 14313.446774864497 7351.8343900438158 6117.9058536188677 2875.664835363059 4775.713437964223 4998.6432703398386 5257.2793728107099 4730.4766088776232 5473.0903553187127
leaf_count=5945493 86495 65204 116488 50107 162196 77527 385642 69868 45304 58831 159525 116936 125090 189535 976605 78129 316053 63041 67700 48296 84009 77756 51883 119240 42350 115166 151833 189139 191567 51200
internal_value=2.49281e-10 0.0504314 -0.0577682 0.0198391 0.0599059 -0.022747 -0.064545 0.0494838 0.00825961 0.0300047 0.0633864 -0.0336891 -0.0131437 -0.0533628 -0.0661164 0.0644505 0.0647979 0.0341945 0.0447415 0.013735 0.00207714 0.0536247 0.0240371 -0.0182595 -0.00842543 -0.0286176 -0.0391137 -0.0486417 -0.0568424 0.0116217
internal_weight=498083 265929 232154 62883.8 203045 37639.5 194515 50832.8 29397.4 33486.4 152212 17593.4 20046 23967 170548 122036 111874 19673.5 23695.5 15590.3 13807.1 27137.3 13812.8 9617.73 10428.3 9092.59 8500.85 10169.4 13797.6 9916.88
internal_count=10278208 1535597 8742611 539166 996431 864630 7877981 280528 315304 223862 715903 500423 364207 955883 6922098 553707 475578 121872 132904 144800 170504 147624 101990 196767 167440 232102 268321 378674 577209 96504
is_linear=0
shrinkage=0.05


Tree=9
num_leaves=31
num_cat=0
split_feature=0 0 0 0 0 0 0 0 0 0 0 0 0 0 0 0 0 0 0 0 0 0 0 0 0 0 0 0 0 0
split_gain=520773 29633.6 20703.4 2963.84 2685.61 1402.02 1335.47 391.206 354.201 310.698 288.957 175.899 174.352 172.177 84.9501 57.2133 56.0638 53.7798 72.0722 43.6786 43.3389 39.3386 39.2891 28.6676 28.5632 19.6407 18.8592 16.9822 14.6296 13.2202
threshold=0.095665354281663909 0.27850711345672613 0.039756024256348617 0.48741348087787634 0.16565294563770297 0.061747688800096519 0.020010780543088916 0.37465725839138037 0.12525137513875964 0.20826912671327594 0.60635584592819225 0.049556843936443336 0.073359411209821715 0.028803754597902301 0.0099316700361669081 0.32406619191169744 0.23954955488443377 0.71261242032051098 0.91175416111946117 0.14991775155067447 0.11645598709583284 0.085307437926530852 0.42828112840652471 0.18484350293874743 0.034544339403510101 0.053160659968853004 0.044950058683753021 0.10187816619873048 0.015536461956799032 0.067027013748884215
decision_type=2 2 2 2 2 2 2 2 2 2 2 2 2 2 2 2 2 2 2 2 2 2 2 2 2 2 2 2 2 2
left_child=2 4 6 7 8 11 14 15 20 23 -5 26 29 -8 -1 -3 -11 -12 -19 -10 27 -14 -9 -6 -15 -13 -4 -2 -16 -7
right_child=1 3 5 10 9 12 13 22 19 16 17 25 21 24 28 -17 -18 18 -20 -21 -22 -23 -24 -25 -26 -27 -28 -29 -30 -31
leaf_value=-0.065040195114926799 -0.0033226829476161301 0.04019327016860344 -0.039762479312022342 0.057275751174245729 0.019996277770648035 -0.021205008667084919 -0.056010985300990593 0.049676179978311905 0.010549030814819425 0.029422099544064689 0.060994290482696084 -0.031001544254949207 -0.011748971020168713 -0.049837014114197276 -0.062771855530163748 0.045188819376928334 0.034838000150163632 0.063986460493283479 0.059412388939972804 0.016087591108126582 0.0060301093920873171 -0.0060832835766388184 0.053563692610500528 0.024601072527611786 -0.04484479449504801 -0.025929335245145981 -0.034966129408900322 0.0011523248071674843 -0.060215773888718564 -0.016965885370784507
leaf_weight=136452.43237836403 3085.7608766201338 11102.240936466391 4574.5325138423104 28903.581634364586 6357.9809738840922 3445.2494485144634 13087.284503078052 12340.477408282401 9794.2570208052166 8912.0710522174631 28972.311317470507 2763.9901599243058 6926.6284859273255 6548.3309764196601 14734.494810583892 11848.115099809904 10302.029972189128 77760.141136712598 9684.5203419752652 5592.1775769744199 3811.2680084470121 5493.6891284642224 13730.987090994982 7216.081485715149 5094.2157077701049 6166.5844438400964 3712.9377509726291 6774.2271899921107 9027.6236694385807 3945.3219122882329
leaf_count=5759547 42729 65204 154187 162196 50107 77527 576952 69868 96504 58831 159525 78057 122149 265104 676021 67700 63041 316053 78129 48296 42897 84434 77756 51883 189139 154045 114134 84878 411218 80097
internal_value=-1.25183e-10 0.0485711 -0.0560578 0.0581641 0.0184263 -0.0219314 -0.0628905 0.0475329 0.00735847 0.028235 0.0617504 -0.0323675 -0.0128613 -0.052076 -0.0645597 0.0427722 0.0323259 0.0628613 0.0634799 0.012562 0.00150209 -0.00924295 0.0517236 0.0224442 -0.0476527 -0.0274992 -0.0376136 -0.000248164 -0.0618008 -0.018942
internal_weight=478162 256188 221973 194342 61845.9 37028.9 184944 49021.8 29057.7 32788.2 145321 17218 19810.9 24729.8 160215 22950.4 19214.1 116417 87444.7 15386.4 13671.3 12420.3 26071.5 13574.1 11642.5 8930.57 8287.47 9859.99 23762.1 7390.57
internal_count=10278208 1535597 8742611 996431 539166 864630 7877981 280528 315304 223862 715903 500423 364207 1031195 6846786 132904 121872 553707 394182 144800 170504 206583 147624 101990 454243 232102 268321 127607 1087239 157624
is_linear=0
shrinkage=0.05


Tree=10
num_leaves=31
num_cat=0
split_feature=0 0 0 0 0 0 0 0 0 0 0 0 0 0 0 0 0 0 0 0 0 0 0 0 0 0 0 0 0 0
split_gain=468854 28542.4 19586.2 2981.82 2442.2 1317 1249.48 384.107 315.399 297.312 289.031 166.853 161.641 154.572 84.109 56.0963 64.319 55.2021 52.6793 41.4161 38.702 37.669 28.4447 28.2634 26.3253 24.3699 21.68 14.7959 13.4396 13.3258
threshold=0.095665354281663909 0.27850711345672613 0.039756024256348617 0.48741348087787634 0.16565294563770297 0.020010780543088916 0.061747688800096519 0.37465725839138037 0.12525137513875964 0.60635584592819225 0.20826912671327594 0.031060464680194858 0.04790309630334378 0.076875746250152602 0.0099316700361669081 0.71261242032051098 0.91175416111946117 0.32406619191169744 0.23954955488443377 0.13590106368064883 0.42828112840652471 0.10899714380502702 0.024807170033454898 0.053160659968853004 0.18484350293874743 0.070136219263076796 0.090190075337886824 0.015536461956799032 0.035498037934303291 0.14991775155067447
decision_type=2 2 2 2 2 2 2 2 2 2 2 2 2 2 2 2 2 2 2 2 2 2 2 2 2 2 2 2 2 2
left_child=2 4 5 7 8 14 12 17 21 -5 24 22 -4 25 -1 -11 -17 -3 -12 -10 -9 -2 -7 -14 -6 -8 -15 -16 -13 -21
right_child=1 3 6 9 10 11 13 20 19 15 18 28 23 26 27 16 -18 -19 -20 29 -22 -23 -24 -25 -26 -27 -28 -29 -30 -31
leaf_value=-0.063662472821717456 -0.0017811955669158005 0.038407293197176645 -0.03710156374996007 0.055667256273455569 0.018631563844302992 -0.055895626942514078 -0.019436232076826234 0.047937597834448342 0.0073713583668792299 0.059509801346181272 0.027778473267083527 -0.046785251742098716 -0.030397684863558511 -0.009750894576450557 -0.061356841480910196 0.0626010552385666 0.058174329906405892 0.043393698617883891 0.03308980620845399 0.011366991931449086 0.051875543616004195 0.0035033590409884793 -0.051555350900126667 -0.024972882041139108 0.023082084273003088 -0.014284286132896182 -0.0045970681261458006 -0.05872005787380781 -0.042828170667511996 0.01487219007221622
leaf_weight=129198.74342580802 6410.3935226259018 10775.818178140355 6808.5163788016034 27646.27475583597 6257.8874513456758 7383.5087552884252 5341.4956213201294 11865.854812711899 4345.5666779155727 27610.858510664228 8723.9553250700847 4663.1120414354173 3975.2601135507248 7400.9563717851561 14006.115140107826 74040.110054329009 9228.4408566168568 11445.780837236191 10042.510000455899 5336.2376023168545 13157.97368529861 7114.8997529922781 7723.7747910063645 6063.0768282901554 7084.101593725969 4025.0069673602775 2817.2592067039004 8579.0464558883086 3974.690618212524 5512.6029384448557
leaf_count=5759547 86495 65204 229603 162196 50107 346679 118333 69868 45304 159525 58831 190755 116775 125090 676021 316053 78129 67700 63041 51200 77756 84009 342575 154045 51883 78434 42350 411218 151186 48296
internal_value=-3.26624e-11 0.0468729 -0.0545329 0.0566067 0.0171456 -0.0614573 -0.0211709 0.0457598 0.00655237 0.0603062 0.0266208 -0.0505073 -0.0311546 -0.0125828 -0.0631704 0.0614628 0.0621105 0.0409757 0.0306207 0.011496 0.0500082 0.000998713 -0.0536766 -0.0271211 0.0209946 -0.0172223 -0.00832994 -0.0603553 -0.0449644 0.0131481
internal_weight=458560 246599 211961 185771 60828.2 175529 36431.6 47245.4 28719.7 138526 32108.5 23745.1 16846.9 19584.7 151784 110879 83268.6 22221.6 18766.5 15194.4 25023.8 13525.3 15107.3 10038.3 13342 9366.5 10218.2 22585.2 8637.8 10848.8
internal_count=10278208 1535597 8742611 996431 539166 7877981 864630 280528 315304 715903 223862 1031195 500423 364207 6846786 553707 394182 132904 121872 144800 147624 170504 689254 270820 101990 196767 167440 1087239 341941 99496
is_linear=0
shrinkage=0.05


Tree=11
num_leaves=31
num_cat=0
split_feature=0 0 0 0 0 0 0 0 0 0 0 0 0 0 0 0 0 0 0 0 0 0 0 0 0 0 0 0 0 0
split_gain=423293 25216.8 21217 2916.81 1786.6 1453.13 1228.58 365.388 350.67 309.501 157.345 155.452 145.775 134.131 115.384 60.2146 56.3932 47.5187 43.6681 43.6168 32.1335 27.9923 25.6575 20.84 20.4017 19.3205 18.374 18.0359 17.3931 13.268
threshold=0.10187816619873048 0.32406619191169744 0.041057424619793899 0.18484350293874743 0.54902809858322155 0.021464614197611812 0.064201176166534438 0.13590106368064883 0.23954955488443377 0.42828112840652471 0.031060464680194858 0.080856826156377806 0.05128175579011441 0.71261242032051098 0.013162932824343445 0.91175416111946117 0.27850711345672613 0.37465725839138037 0.16565294563770297 0.11645598709583284 0.20826912671327594 0.60635584592819225 0.48741348087787634 0.02668743766844273 0.073359411209821715 0.090190075337886824 0.057258807122707374 0.036470601335167892 0.046396570280194289 0.0094009465537965315
decision_type=2 2 2 2 2 2 2 2 2 2 2 2 2 2 2 2 2 2 2 2 2 2 2 2 2 2 2 2 2 2
left_child=2 3 5 7 9 14 12 19 20 17 23 24 28 21 29 -15 -10 -3 -9 -2 -5 -6 -11 -7 -8 -13 -14 -12 -4 -1
right_child=1 4 6 8 13 10 11 18 16 22 27 25 26 15 -16 -17 -18 -19 -20 -21 -22 -23 -24 -25 -26 -27 -28 -29 -30 -31
leaf_value=-0.062491650248419572 0.00023985492517227086 0.041743251659017426 -0.035576575574498483 0.021691285369258208 0.055245283847783426 -0.053459857819507475 -0.016930692198549386 0.012100080293637206 0.031481161024742521 0.050340517090305251 -0.045007581987490046 -0.0085600596736840721 -0.02650897627507311 0.061393453188541482 -0.057799919205983125 0.057003105070368848 0.036761879967992739 0.046344224499992565 0.017384160544373858 0.0057185097597264494 0.026269221374646063 0.058192547282537324 0.053411373624092519 -0.049252396303732869 -0.012367183225578646 -0.0043296134466724156 -0.021957719017783012 -0.040589571439766568 -0.030910842387088324 -0.06056467845412488
leaf_weight=120556.36982791284 6637.958922273574 11052.114504378056 4373.0296655692946 6954.8506078368009 11620.207707946422 7144.8719823263073 5625.8439421362527 10704.122032983003 9788.8086725826943 12595.442110054544 5414.2746221730013 5038.5500567840754 4287.9794841618714 70369.309742232726 15611.406520719465 8784.8446596848662 10455.942239084747 11400.658302117532 6159.9341692593298 8024.5250467404912 8540.0281283826698 26268.734736328421 14788.051836826387 5004.4199857653457 4337.2777807345919 5812.1788533632098 4592.8614631128949 4029.1687865241147 3676.9879591555837 9647.8384270400711
leaf_count=5684708 84878 67700 150694 51883 80411 346898 120158 99496 63041 77756 227641 84207 117980 316053 787636 78129 65204 69868 50107 88201 58831 159525 81785 228300 80026 85079 113099 155706 114710 488498
internal_value=-1.75873e-10 0.0459416 -0.0524342 0.0200967 0.0563593 -0.0600692 -0.0185705 0.00901103 0.0298756 0.0484309 -0.0479638 -0.0104346 -0.0285724 0.0597351 -0.0618618 0.0609062 0.0342085 0.0440794 0.0140302 0.00323823 0.0242144 0.0572886 0.0519989 -0.0517268 -0.014944 -0.00629403 -0.0241552 -0.0431226 -0.0334454 -0.0623489
internal_weight=439299 234146 205153 67266.2 166879 167408 37744.7 31526.5 35739.6 49836.3 21592.7 20813.9 16930.9 117043 145816 79154.2 20244.8 22452.8 16864.1 14662.5 15494.9 37888.9 27383.5 12149.3 9963.12 10850.7 8880.84 9443.44 8050.02 130204
internal_count=10278208 1492868 8785340 561641 931227 7919387 865953 322682 238959 297109 958545 369470 496483 634118 6960842 394182 128245 137568 149603 173079 110714 239936 159541 575198 200184 169286 231079 383347 265404 6173206
is_linear=0
shrinkage=0.05


Tree=12
num_leaves=31
num_cat=0
split_feature=0 0 0 0 0 0 0 0 0 0 0 0 0 0 0 0 0 0 0 0 0 0 0 0 0 0 0 0 0 0
split_gain=382935 24505.5 20208.9 2688.34 1945.59 1346.52 1161.55 331.017 328.928 249.395 203.682 137.475 133.051 122.229 85.6964 57.998 53.996 46.9034 41.9007 38.4277 29.987 25.6053 24.2158 19.4296 19.1379 17.4827 16.211 13.839 13.3368 12.3469
threshold=0.10187816619873048 0.32406619191169744 0.038537437096238143 0.18484350293874743 0.54902809858322155 0.064201176166534438 0.020010780543088916 0.23954955488443377 0.13590106368064883 0.42828112840652471 0.049556843936443336 0.080856826156377806 0.028803754597902301 0.71261242032051098 0.0094009465537965315 0.91175416111946117 0.27850711345672613 0.37465725839138037 0.14991775155067447 0.11645598709583284 0.20826912671327594 0.042254325002431876 0.057258807122707374 0.070136219263076796 0.033621761947870261 0.090190075337886824 0.015536461956799032 0.024807170033454898 0.60635584592819225 0.16565294563770297
decision_type=2 2 2 2 2 2 2 2 2 2 2 2 2 2 2 2 2 2 2 2 2 2 2 2 2 2 2 2 2 2
left_child=2 3 6 8 9 10 14 20 19 17 21 23 27 28 -1 -15 -9 -3 -10 -2 -5 -4 -12 -7 -14 -13 -16 -8 -6 -20
right_child=1 4 5 7 13 11 12 16 18 -11 22 25 24 15 26 -17 -18 -19 29 -21 -22 -23 -24 -25 -26 -27 -28 -29 -30 -31
leaf_value=-0.061469334028384351 -0.00012856070820723296 0.040221231431866539 -0.038106441775881211 0.02041539769994859 0.055017433454459086 -0.017420540566823389 -0.053329471450365665 0.029998184009876139 0.0092855461365993468 0.049938246288878482 -0.026184530670142175 -0.0085143727959325326 -0.045987440254045373 0.060334340194011363 -0.059057620050111372 0.055915114112219916 0.035237828825541904 0.04487960975144225 0.012950625638931141 0.0050425720781448295 0.02488148846839176 -0.032416990751559564 -0.0212363974308332 -0.012820827071633024 -0.041476401230090644 -0.0044675314888577566 -0.056203769170748513 -0.049788830721577408 0.057016072486612439 0.016244418235240025
leaf_weight=113797.38998901269 6566.6846561871571 10669.398039049687 3054.3212351308794 6828.228962418696 12540.467449779884 3653.7132924492726 6700.4604198817033 9541.8848250169685 5203.5426026034038 24648.266872325912 5461.3485743284582 4980.0444351875485 4941.5572881795524 66763.941614075709 13953.675007063637 8353.3050605452154 10144.436431035116 10948.194731598152 5361.3874351614722 7932.5108037353421 8360.4662464306748 5609.5074144665377 4518.2414288660075 6177.583999686547 4485.1673879717782 5750.4738585480009 7734.188958872528 4692.6666439486144 24960.064277196449 6062.1668093075496
leaf_count=5684708 84878 67700 118575 51883 80411 80867 346679 63041 51200 159541 156469 84207 226729 316053 750860 78129 65204 69868 48296 88201 58831 190357 113099 119317 186903 85079 411218 230273 159525 50107
internal_value=8.71072e-11 0.0444947 -0.0511799 0.0188862 0.0551327 -0.0190824 -0.0592307 0.0284195 0.00820475 0.0465003 -0.0288137 -0.010259 -0.0482353 0.058679 -0.0609204 0.0598429 0.0326982 0.0425805 0.0130045 0.00270057 0.0228737 -0.0344227 -0.0239443 -0.0145303 -0.0438411 -0.00634567 -0.0580399 -0.0518711 0.0563477 0.0146986
internal_weight=420395 224885 195510 66001.3 158884 39205.2 156305 34875 31126.3 46265.9 18643.4 20561.8 20819.9 112618 135485 75117.2 19686.3 21617.6 16627.1 14499.2 15188.7 8663.83 9979.59 9831.3 9426.72 10730.5 21687.9 11393.1 37500.5 11423.6
internal_count=10278208 1492868 8785340 561641 931227 947970 7837370 238959 322682 297109 578500 369470 990584 634118 6846786 394182 128245 137568 149603 173079 110714 308932 269568 200184 413632 169286 1162078 576952 239936 98403
is_linear=0
shrinkage=0.05


Tree=13
num_leaves=31
num_cat=0
split_feature=0 0 0 0 0 0 0 0 0 0 0 0 0 0 0 0 0 0 0 0 0 0 0 0 0 0 0 0 0 0
split_gain=347067 23853.9 19337 2478.8 1938.31 1312.06 1047.38 312.251 297.019 259.588 196.372 139.016 124.916 124.797 71.0297 56.9762 51.6894 46.3276 37.7664 34.0148 28.1765 27.9627 26.7581 20.7974 16.1977 15.4653 13.6966 13.1977 12.7534 11.4587
threshold=0.10187816619873048 0.32406619191169744 0.037505438551306731 0.18484350293874743 0.54902809858322155 0.059362392872571952 0.01910103298723698 0.23954955488443377 0.13590106368064883 0.42828112840652471 0.076875746250152602 0.04790309630334378 0.71261242032051098 0.028079895302653316 0.0094009465537965315 0.91175416111946117 0.27850711345672613 0.37465725839138037 0.14991775155067447 0.11645598709583284 0.085307437926530852 0.20826912671327594 0.067027013748884215 0.042254325002431876 0.032770292833447463 0.48741348087787634 0.053160659968853004 0.60635584592819225 0.024230727925896648 0.16565294563770297
decision_type=2 2 2 2 2 2 2 2 2 2 2 2 2 2 2 2 2 2 2 2 2 2 2 2 2 2 2 2 2 2
left_child=2 3 6 8 9 11 14 21 19 17 22 23 27 28 -1 -14 -9 -3 -10 -2 -12 -5 -7 -4 -15 -11 -13 -6 -8 -20
right_child=1 4 5 7 12 10 13 16 18 25 20 26 15 24 -16 -17 -18 -19 29 -21 -22 -23 -24 -25 -26 -27 -28 -29 -30 -31
leaf_value=-0.060577129510430844 -0.00046129843014019301 0.038794978392881735 -0.037214854914566955 0.019235704265220244 0.053907439802878834 -0.019186634451071469 -0.052653496526936627 0.028611954916494223 0.0085157169117932221 0.047538881885664991 -0.010332996403821093 -0.027434687766944056 0.059397918238339176 -0.04547030237368796 -0.057271451295451595 0.054902689687988442 0.03381048002790505 0.043514210552615853 0.011994684070976569 0.0044309946278933993 -0.0054491837016344517 0.023591023306581908 -0.014120434996994807 -0.0321420881987345 -0.041213552448378196 0.0501052841394675 -0.023270620425580254 0.055949870340271893 -0.049226747557112399 0.015191683386374569
leaf_weight=107177.29293947956 6495.6473618449381 10296.654506340034 3822.7719702274335 6703.8381125472006 11875.559875944426 4774.2080292265819 7019.1541654830089 9300.7507168916345 5136.1147478710409 11507.680190311919 4609.1244662483332 3718.0302962836686 63238.688570891158 4707.9564793854788 19154.402369456584 7933.3477406948223 9841.2427010136234 10507.077864398198 5285.4013343536499 7842.4573976081374 8220.8457880429451 8184.8776215178805 5739.8176358985402 4285.6654443082334 4254.2075557265634 11982.51401161775 4211.8265401313438 23682.394750391744 4428.101083689151 5967.0793809268216
leaf_count=5684708 84878 67700 154805 51883 80411 116444 384477 63041 51200 77756 83006 116775 316053 228265 1086723 78129 65204 69868 48296 88201 127163 58831 119240 151639 187441 81785 115128 159525 229526 50107
internal_value=7.92936e-11 0.0431528 -0.050029 0.0177652 0.0540387 -0.0189197 -0.0583781 0.0270606 0.00747031 0.0452458 -0.0113551 -0.0299302 0.0576878 -0.0478684 -0.0600759 0.0588968 0.0312846 0.0411785 0.0120684 0.00221462 -0.00720368 0.02163 -0.0164209 -0.0345337 -0.0434497 0.048848 -0.025223 0.0552677 -0.0513279 0.01369
internal_weight=401905 215781 186123 64757.4 151024 39382.3 146741 34030.7 30726.7 44293.9 23344 16038.3 106730 20409.4 126332 71172 19142 20803.7 16388.6 14338.1 12830 14888.7 10514 8108.44 8962.16 23490.2 7929.86 35558 11447.3 11252.5
internal_count=10278208 1492868 8785340 561641 931227 984200 7801140 238959 322682 297109 445853 538347 634118 1029709 6771431 394182 128245 137568 149603 173079 210169 110714 235684 306444 415706 159541 231903 239936 614003 98403
is_linear=0
shrinkage=0.05


Tree=14
num_leaves=31
num_cat=0
split_feature=0 0 0 0 0 0 0 0 0 0 0 0 0 0 0 0 0 0 0 0 0 0 0 0 0 0 0 0 0 0
split_gain=314840 23180.8 18553.3 2285.62 1941.57 1186.64 1048.37 294.241 268.548 264.485 164.308 140.161 129.199 121.625 72.0742 56.8504 49.3752 45.5473 34.1369 30.2034 26.8102 26.0717 20.9339 19.6214 17.7352 15.6203 15.4349 13.7625 12.5254 12.1376
threshold=0.10187816619873048 0.32406619191169744 0.037505438551306731 0.18484350293874743 0.54902809858322155 0.061747688800096519 0.01910103298723698 0.23954955488443377 0.13590106368064883 0.42828112840652471 0.04790309630334378 0.080856826156377806 0.71261242032051098 0.028079895302653316 0.0094009465537965315 0.91175416111946117 0.27850711345672613 0.37465725839138037 0.14991775155067447 0.11645598709583284 0.070136219263076796 0.20826912671327594 0.055139226838946349 0.042254325002431876 0.48741348087787634 0.032770292833447463 0.090190075337886824 0.60635584592819225 0.024230727925896648 0.014140451326966287
decision_type=2 2 2 2 2 2 2 2 2 2 2 2 2 2 2 2 2 2 2 2 2 2 2 2 2 2 2 2 2 2
left_child=2 3 6 8 9 10 14 21 19 17 23 20 27 28 -1 -14 -9 -3 -10 -2 -7 -5 -12 -4 -11 -15 -13 -6 -8 -16
right_child=1 4 5 7 12 11 13 16 18 24 22 26 15 25 29 -17 -18 -19 -20 -21 -22 -23 -24 -25 -26 -27 -28 -29 -30 -31
leaf_value=-0.059800056678079243 -0.00075435837770949162 0.037453004567548097 -0.036119161595450859 0.018145777894853981 0.052827326957884974 -0.017144707479984873 -0.051629690764512938 0.027318977951902808 0.0078135304935869794 0.046333958420877487 -0.025851143406091182 -0.0084398405774382314 0.058562626133598028 -0.044353273432066069 -0.057545878337681412 0.053951849846089507 0.032471816923826273 0.04222402148262696 0.012767796865313326 0.0038827179807046927 -0.01219653025297119 0.022393384041356827 -0.021085085199527825 -0.031115576743243431 0.04914942249628141 -0.040087474189217209 -0.0045927075844179521 0.054970027149223402 -0.048148085322272376 -0.054942738461981666
leaf_weight=100767.71610668901 6421.3947387956796 9932.7617050972767 3697.0863953425614 6579.793514865014 11251.541156301624 5025.6221730759244 6656.9029428341582 9063.8765529696175 5067.1350695396832 10989.289191067946 4967.9342160725646 4861.7275804840137 59797.608004034671 4508.9922257700036 9930.9846770955974 7526.8690379173495 9544.3616489045962 10078.000593835677 11079.891687766132 7749.5752903732791 6012.4874607576894 8011.0145906573816 4296.4928087803819 4168.498369488927 11391.566899202167 4094.9056279886863 5622.0841015745464 22440.21725313316 4221.4848362632256 8155.0777891639245
leaf_count=5684708 84878 67700 154805 51883 80411 118333 384477 63041 51200 77756 155654 84207 316053 228265 600498 78129 65204 69868 98403 88201 119317 58831 115166 151639 81785 187441 85079 159525 229526 486225
internal_value=-1.26011e-10 0.0418759 -0.0489591 0.0167299 0.0530134 -0.018333 -0.0575162 0.0257937 0.00680465 0.0440326 -0.0281529 -0.010517 0.0567822 -0.0467652 -0.0592784 0.0580471 0.0299619 0.0398558 0.0112131 0.00178149 -0.0144494 0.0204779 -0.0236408 -0.0334674 0.047767 -0.042323 -0.00637676 0.0542545 -0.0502786 -0.0563721
internal_weight=383913 206925 176988 63517 143408 38651.9 138336 33199 30318 42391.6 17130 21521.9 101016 19482.3 118854 67324.5 18608.2 20010.8 16147 14171 11038.1 14590.8 9264.43 7865.58 22380.9 8603.9 10483.8 33691.8 10878.4 18086.1
internal_count=10278208 1492868 8785340 561641 931227 984200 7801140 238959 322682 297109 577264 406936 634118 1029709 6771431 394182 128245 137568 149603 173079 237650 110714 270820 306444 159541 415706 169286 239936 614003 1086723
is_linear=0
shrinkage=0.05


Tree=15
num_leaves=31
num_cat=0
split_feature=0 0 0 0 0 0 0 0 0 0 0 0 0 0 0 0 0 0 0 0 0 0 0 0 0 0 0 0 0 0
split_gain=285836 24332.6 15820.9 2428.06 1947.58 1066.45 862.358 323.935 276.874 266.872 147.465 133.798 129.636 104.346 57.3935 53.3733 47.3832 47.0765 44.6701 33.7338 24.282 19.4096 18.5133 17.6116 16.4992 14.3755 13.5709 12.6265 9.24377 9.00475
threshold=0.095665354281663909 0.32406619191169744 0.035498037934303291 0.18484350293874743 0.54902809858322155 0.057258807122707374 0.017818563617765907 0.13590106368064883 0.23954955488443377 0.42828112840652471 0.073359411209821715 0.71261242032051098 0.044950058683753021 0.02668743766844273 0.91175416111946117 0.0094009465537965315 0.11645598709583284 0.27850711345672613 0.37465725839138037 0.16565294563770297 0.20826912671327594 0.48741348087787634 0.085307437926530852 0.05128175579011441 0.064201176166534438 0.60635584592819225 0.041057424619793899 0.031060464680194858 0.023630563169717792 0.14991775155067447
decision_type=2 2 2 2 2 2 2 2 2 2 2 2 2 2 2 2 2 2 2 2 2 2 2 2 2 2 2 2 2 2
left_child=2 3 6 7 9 12 15 16 20 18 24 25 26 28 -13 -1 -2 -10 -3 29 -5 -11 -12 -14 -7 -6 -4 -15 -8 -9
right_child=1 4 5 8 11 10 13 19 17 21 22 14 23 27 -16 -17 -18 -19 -20 -21 -22 -23 -24 -25 -26 -27 -28 -29 -30 -31
leaf_value=-0.059120486190524638 -0.0019274739460067353 0.036185062585380727 -0.036407010303305253 0.017138355296824181 0.051810417127084098 -0.019339218746415116 -0.051280510835371655 0.007177464247910441 0.026108601731023445 0.045194508895008284 -0.01043105955611924 0.05781169731612721 -0.027647212537128398 -0.04466866496383512 0.053052386500660575 -0.055931362703567092 0.0033931428192573911 0.031211708884788754 0.041003355066564912 0.013475931191538587 0.021279180872014566 0.048212831895290298 -0.006405811889245893 -0.023036603874797192 -0.015165742309191441 0.054061107513488305 -0.031970156655262316 -0.040699682698876971 -0.048100861600218335 0.010159434303560831
leaf_weight=94594.443073619943 9230.9441412040542 9579.3178781450697 4306.6869615736541 6455.9301306893612 10653.387208895612 4279.970256929224 7455.3943009599407 4996.0821193257871 8832.0069329723046 10487.028543647815 6431.1363228244045 56456.630444057926 4361.5118280096722 4195.2061347807175 7135.0981612051255 15232.218986223583 7654.1857118833505 9255.2426867195973 9662.1484882010118 5779.1655354375253 7839.5084746574721 10823.443619484693 5139.2374518572324 3944.2657112278903 5301.5217039680101 21238.656751605944 2873.2814517777879 3836.2304545394381 3296.4148985120664 5132.3886789479948
leaf_count=5684708 127607 67700 192592 51883 80411 113099 457926 51200 63041 77756 122149 316053 152623 228300 78129 973453 88201 65204 69868 50107 58831 81785 84434 117980 120158 159525 112781 190755 191653 48296
internal_value=6.31306e-11 0.0400182 -0.0487276 0.014898 0.0520534 -0.0197414 -0.056985 0.00530789 0.0246096 0.0428733 -0.0124423 0.0559522 -0.0297111 -0.0470848 0.0572777 -0.0586782 0.000484411 0.0287199 0.0386046 0.0104278 0.0194092 0.0467275 -0.00864316 -0.0254577 -0.01703 0.0533093 -0.0346315 -0.0427729 -0.0503057 0.00868851
internal_weight=366459 201211 165248 65175.5 136036 36637.6 128610 32792.8 32382.7 40551.9 21151.9 95483.8 15485.7 18783.2 63591.7 109827 16885.1 18087.2 19241.5 15907.6 14295.4 21310.5 11570.4 8305.78 9581.49 31892 7179.97 8031.44 10751.8 10128.5
internal_count=10278208 1535597 8742611 604370 931227 1015816 7726795 365411 238959 297109 439840 634118 575976 1068634 394182 6658161 215808 128245 137568 149603 110714 159541 206583 270603 233257 239936 305373 419055 649579 99496
is_linear=0
shrinkage=0.05


Tree=16
num_leaves=31
num_cat=0
split_feature=0 0 0 0 0 0 0 0 0 0 0 0 0 0 0 0 0 0 0 0 0 0 0 0 0 0 0 0 0 0
split_gain=259655 21788.3 17177 1953.83 1938.55 1062.19 953.222 267.402 260.204 218.062 141.784 138.567 128.025 120.474 58.5082 54.7199 44.7984 43.7009 30.529 23.4226 22.6299 22.1716 20.6508 20.3042 19.6751 14.9402 12.8698 12.7864 10.8638 8.20232
threshold=0.10187816619873048 0.32406619191169744 0.036470601335167892 0.54902809858322155 0.18484350293874743 0.059362392872571952 0.017818563617765907 0.42828112840652471 0.23954955488443377 0.13590106368064883 0.076875746250152602 0.71261242032051098 0.04790309630334378 0.027365733869373802 0.91175416111946117 0.0094009465537965315 0.27850711345672613 0.37465725839138037 0.16565294563770297 0.12525137513875964 0.20826912671327594 0.042254325002431876 0.48741348087787634 0.090190075337886824 0.067027013748884215 0.60635584592819225 0.031060464680194858 0.023630563169717792 0.053160659968853004 0.14991775155067447
decision_type=2 2 2 2 2 2 2 2 2 2 2 2 2 2 2 2 2 2 2 2 2 2 2 2 2 2 2 2 2 2
left_child=2 4 6 7 9 12 15 17 20 19 24 25 21 27 -13 -1 -10 -3 29 -2 -6 -4 -9 -12 -7 -5 -15 -8 -14 -11
right_child=1 3 5 11 8 10 13 22 16 18 23 14 28 26 -16 -17 -18 -19 -20 -21 -22 -23 -24 -25 -26 -27 -28 -29 -30 -31
leaf_value=-0.058524973839761178 -0.00022861977727713919 0.034981109215893251 -0.034482043899044267 0.050848735193860455 0.016201863382342824 -0.017524320857944083 -0.050438544436546308 0.044110025721807326 0.02497150592876627 0.0065925674563756965 -0.0088877357067279703 0.057130421926377385 -0.024952380076391126 -0.043373649314668708 0.05219220293516439 -0.055195340559473151 0.030020685476579163 0.039841690807614412 0.012636043081028081 0.0042970405141336135 0.020240133866493128 -0.029272357930583876 0.047301375007901998 -0.0048065215776717084 -0.013070094101894723 0.053207802784581162 -0.039267432655291035 -0.046839425492388467 -0.021115529486440091 0.0094598958439365919
leaf_weight=88670.470942124841 9783.1515530782708 9237.0622719007661 4245.4022750144832 10080.254725510022 6333.7145519034748 4523.5486527113862 7056.2612453388992 10002.394144884776 8605.4214544297138 4924.5850087718645 6861.786230543039 53226.173862277064 3455.9586839174626 3342.9984958465266 6759.9143455013109 14334.071914906905 8974.2917747291795 9260.4926804219431 5682.6225015548116 4039.4452659110684 7670.8497565000362 3935.4252966106797 10277.576289981487 5482.4399123419935 5485.7491939829451 20082.145802822197 4446.0957242141412 3794.8665374394041 3957.5556692723039 5053.6709827352752
leaf_count=5684708 127775 67700 192264 80411 51883 116444 457926 77756 63041 51200 125090 316053 116775 189658 78129 973453 65204 69868 50107 45304 58831 151639 81785 85079 119240 159525 227641 230295 115128 48296
internal_value=-7.11435e-11 0.0394937 -0.0470169 0.0511469 0.0148914 -0.0176478 -0.0561788 0.041762 0.0234985 0.00567097 -0.0106609 0.0551839 -0.0276632 -0.0457742 0.0565739 -0.0580616 0.0275491 0.0374145 0.00971074 0.00109394 0.0184138 -0.0319759 0.0457274 -0.00707515 -0.0150831 0.0524194 -0.0410298 -0.0491799 -0.0229042 0.00804478
internal_weight=349586 189994 159593 128926 61067.8 37947.9 121645 38777.5 31584.3 29483.5 22353.5 90148.5 15594.3 18640.2 59986.1 103005 17579.7 18497.6 15660.9 13822.6 14004.6 8180.83 20280 12344.2 10009.3 30162.4 7789.09 10851.1 7413.51 9978.26
internal_count=10278208 1492868 8785340 931227 561641 1021659 7763681 297109 238959 322682 445853 634118 575806 1105520 394182 6658161 128245 137568 149603 173079 110714 343903 159541 210169 235684 239936 417299 688221 231903 99496
is_linear=0
shrinkage=0.05


Tree=17
num_leaves=31
num_cat=0
split_feature=0 0 0 0 0 0 0 0 0 0 0 0 0 0 0 0 0 0 0 0 0 0 0 0 0 0 0 0 0 0
split_gain=235969 21090.8 16573 1969.32 1785.8 1045.2 869.469 265.814 244.153 197.942 137.868 129.092 125.561 101.239 76.968 56.134 42.5252 42.486 27.6847 27.4355 22.4378 22.0084 21.3987 21.0326 20.7112 12.2296 11.6404 9.37877 8.8564 8.40609
threshold=0.10187816619873048 0.32406619191169744 0.035498037934303291 0.54902809858322155 0.18484350293874743 0.059362392872571952 0.017818563617765907 0.42828112840652471 0.23954955488443377 0.13590106368064883 0.044950058683753021 0.073359411209821715 0.71261242032051098 0.02668743766844273 0.91175416111946117 0.0094009465537965315 0.27850711345672613 0.37465725839138037 0.16565294563770297 0.085307437926530852 0.11645598709583284 0.05128175579011441 0.48741348087787634 0.20826912671327594 0.60635584592819225 0.041057424619793899 0.031060464680194858 0.022530753165483478 0.067027013748884215 0.014140451326966287
decision_type=2 2 2 2 2 2 2 2 2 2 2 2 2 2 2 2 2 2 2 2 2 2 2 2 2 2 2 2 2 2
left_child=2 4 6 7 9 10 15 17 23 20 25 28 24 27 -14 -1 -10 -3 -11 -13 -2 -12 -9 -6 -5 -4 -15 -8 -7 -17
right_child=1 3 5 12 8 11 13 22 16 18 21 19 14 26 -16 29 -18 -19 -20 -21 -22 -23 -24 -25 -26 -27 -28 -29 -30 -31
leaf_value=-0.05800199435038339 -0.0014443730408018813 0.033825207772043342 -0.03446663558882182 0.049914193992184115 0.015328153095094901 -0.017011301114456798 -0.049963293678636236 0.043056132060323687 0.023895430336662873 0.007452585670412128 -0.025991111359935301 -0.010022608222697878 0.056501861876407017 -0.042744053977496109 0.050384743942432877 -0.055514060635307796 0.028885094690831278 0.038713528828299232 0.011860771514652028 -0.0055770812943174344 0.0026290342635423695 -0.021072154993541953 0.046387392374709305 0.019261311387067395 0.052754726502937971 -0.030111617439807566 -0.038761210086060108 -0.046811067960569254 -0.013649880058499972 -0.052949507465270419
leaf_weight=83018.211015322682 6189.0749788771791 8906.514597378613 4004.2426564960297 9528.4863459216722 6212.6232218210716 4435.4468530443737 5537.1193008808259 9535.3175126033311 8384.8579691758059 9827.2104936886899 4130.5584094706137 6246.8345589879391 50114.545276732591 3819.4017085288015 5730.2807733642403 8267.0030004765595 8701.6483348451438 8873.3080394694553 5586.4287439193868 7809.2927042814408 7450.2648426920277 5059.1040395390301 9749.8902962856228 7505.1430551597878 19652.974305552081 2698.3089515681058 3530.0757168838572 4112.0301890639257 3510.3637055244544 5208.396011887422
leaf_count=5684708 84878 67700 192592 80411 51883 116444 381605 77756 63041 99496 152623 122149 316053 228300 78129 600498 65204 69868 50107 127163 88201 154696 81785 58831 159525 112781 190755 267974 80097 372955
internal_value=-4.87089e-11 0.0383731 -0.0461199 0.0502926 0.0140608 -0.0174897 -0.0556793 0.0406747 0.022448 0.00516798 -0.0272603 -0.0104323 0.0544852 -0.0452524 0.0558742 -0.0575161 0.0264365 0.0362648 0.00905026 -0.00755277 0.000780659 -0.0232831 0.0447403 0.01748 0.0518272 -0.0327134 -0.040831 -0.04862 -0.0155263 -0.0545228
internal_weight=333335 181949 151386 122091 59857.3 37894.2 113492 37065 30804.3 29053 15892.2 22001.9 85026.3 16998.6 55844.8 96493.6 17086.5 17779.8 15413.6 14056.1 13639.3 9189.66 19285.2 13717.8 29181.5 6702.55 7349.48 9649.15 7945.81 13475.4
internal_count=10278208 1492868 8785340 931227 561641 1058545 7726795 297109 238959 322682 612692 445853 634118 1068634 394182 6658161 128245 137568 149603 249312 173079 307319 159541 110714 239936 305373 419055 649579 196541 973453
is_linear=0
shrinkage=0.05


Tree=18
num_leaves=31
num_cat=0
split_feature=0 0 0 0 0 0 0 0 0 0 0 0 0 0 0 0 0 0 0 0 0 0 0 0 0 0 0 0 0 0
split_gain=214567 21949.4 14308.8 1984.98 1888.33 878.805 791.721 263.815 239.351 228.759 131.203 129.325 94.6458 83.4877 70.8758 57.3575 41.3273 40.2762 35.1518 25.1787 22.2537 22.1006 19.5709 18.5434 13.0829 13.0719 9.39934 9.34787 8.33549 8.1336
threshold=0.095665354281663909 0.32406619191169744 0.034544339403510101 0.54902809858322155 0.18484350293874743 0.055139226838946349 0.017818563617765907 0.42828112840652471 0.13590106368064883 0.23954955488443377 0.073359411209821715 0.71261242032051098 0.043585527688264854 0.02668743766844273 0.91175416111946117 0.0094009465537965315 0.37465725839138037 0.27850711345672613 0.11645598709583284 0.14991775155067447 0.60635584592819225 0.48741348087787634 0.20826912671327594 0.064201176166534438 0.049556843936443336 0.085307437926530852 0.023630563169717792 0.039756024256348617 0.014140451326966287 0.16565294563770297
decision_type=2 2 2 2 2 2 2 2 2 2 2 2 2 2 2 2 2 2 2 2 2 2 2 2 2 2 2 2 2 2
left_child=2 4 6 7 8 12 15 16 18 22 23 20 27 26 -13 -1 -3 -11 -2 -10 -5 -9 -6 -7 -14 -12 -8 -4 -17 -21
right_child=1 3 5 11 9 10 13 21 19 17 25 14 24 -15 -16 28 -18 -19 -20 29 -22 -23 -24 -25 -26 -27 -28 -29 -30 -31
leaf_value=-0.057541108349596075 -0.0024123050680777015 0.032726863297569679 -0.034438131183908087 0.049041386481454168 0.014518198921858252 -0.018160229564910514 -0.048916850638666159 0.042056093080855381 0.0054401205402529115 0.022885565417487583 -0.0098142058337035432 0.055931103995397448 -0.026461286989093676 -0.040369084761621377 0.049874347066400627 -0.054931154255423512 0.037644071787083053 0.027810471374607262 0.0022637298028591801 0.0083434980537101435 0.052071297993622458 0.045527476953978685 0.018351356525443067 -0.013927263596289827 -0.022222318392605654 -0.0063580830888066145 -0.045445790126258157 -0.030515064532161414 -0.05229688225158128 0.011146458902824946
leaf_weight=77639.616707979105 8874.4027637438267 8589.3315705358909 3691.2303638467965 9007.2868601306836 6093.0489848961734 5327.9330886978496 6306.8144378666275 9090.078232825239 4780.8555963111503 8170.8049232781559 6150.4492673287714 47151.078401477251 3834.1651588857785 6323.673256556458 5381.3843721384474 7754.3298402291402 8503.390559578831 8439.0654441815859 7346.1198328202881 4896.8010380271153 18521.423284680553 9251.3168439570291 7343.0587457760994 5029.7052686893294 3465.3384447751378 4928.0523291709906 2823.5104366269588 2579.6300997530489 4900.898472956862 5489.6183642835385
leaf_count=5684708 127607 67700 189139 80411 51883 152632 457926 77756 51200 63041 122149 316053 151833 381102 78129 600498 69868 65204 88201 48296 159525 81785 58831 120158 116936 84434 191653 116488 372955 50107
internal_value=-1.74718e-10 0.036651 -0.0460703 0.0494951 0.0125042 -0.0183624 -0.0552425 0.0396422 0.00392753 0.0214639 -0.0120591 0.0538559 -0.0283192 -0.044785 0.0553107 -0.0570323 0.0351731 0.0253878 -0.000294574 0.00844283 0.0510799 0.043807 0.0166131 -0.0161047 -0.0244489 -0.00827682 -0.0478434 -0.0328243 -0.053911 0.00982497
internal_weight=317684 176929 140755 115495 61433.8 35006.5 105749 35434.1 31387.8 30046 21436.1 80061.2 13570.4 15454 52532.5 90294.8 17092.7 16609.9 16220.5 15167.3 27528.7 18341.4 13436.1 10357.6 7299.5 11078.5 9130.32 6270.86 12655.2 10386.4
internal_count=10278208 1535597 8742611 931227 604370 1053769 7688842 297109 365411 238959 479373 634118 574396 1030681 394182 6658161 137568 128245 215808 149603 239936 159541 110714 272790 268769 206583 649579 305627 973453 98403
is_linear=0
shrinkage=0.05


Tree=19
num_leaves=31
num_cat=0
split_feature=0 0 0 0 0 0 0 0 0 0 0 0 0 0 0 0 0 0 0 0 0 0 0 0 0 0 0 0 0 0
split_gain=195110 21144.8 13867.6 1995.1 1737.5 871.586 720.467 260.657 219.139 213.967 133.056 118.822 102.408 68.0026 66.7655 58.6383 46.733 40.0859 38.0608 23.4866 22.5919 18.783 18.196 14.9916 12.3332 12.179 11.737 9.05699 7.4256 7.20063
threshold=0.095665354281663909 0.32406619191169744 0.033621761947870261 0.54902809858322155 0.18484350293874743 0.055139226838946349 0.017818563617765907 0.42828112840652471 0.12525137513875964 0.23954955488443377 0.71261242032051098 0.070136219263076796 0.043585527688264854 0.024807170033454898 0.91175416111946117 0.0099316700361669081 0.14991775155067447 0.37465725839138037 0.27850711345672613 0.60635584592819225 0.48741348087787634 0.080856826156377806 0.20826912671327594 0.10899714380502702 0.028803754597902301 0.049556843936443336 0.038537437096238143 0.064201176166534438 0.16565294563770297 0.014140451326966287
decision_type=2 2 2 2 2 2 2 2 2 2 2 2 2 2 2 2 2 2 2 2 2 2 2 2 2 2 2 2 2 2
left_child=2 4 6 7 8 12 15 17 23 22 19 27 26 -8 -12 -1 -10 -3 -11 -5 -9 -13 -6 -2 -15 -14 -4 -7 -18 -17
right_child=1 3 5 10 9 11 13 20 16 18 14 21 25 24 -16 29 28 -19 -20 -21 -22 -23 -24 -25 -26 -27 -28 -29 -30 -31
leaf_value=-0.057110360063239246 -0.003547024555753433 0.031674944108076863 -0.034395040083206062 0.048201350899054918 0.013766537138336877 -0.017634344876733977 -0.047831099793318496 0.041089058095415562 0.0042054254126196585 0.021933483101504267 0.055397335131801687 -0.010855432643560634 -0.025709094120380499 -0.043057038560407129 0.049332006729582628 -0.054281418595894061 0.0077851183769297718 0.03661404745930235 0.026788860437633556 0.051405127685378707 0.044688309897354228 -0.0069673299524958925 0.017500928751137037 -2.5394442854423107e-05 -0.038851104901694737 -0.021562349671829486 -0.030211934838230366 -0.014268008841137264 0.01048620173635781 -0.051685893549705868
leaf_weight=73439.339371969458 5752.9298331958562 8284.313113422686 3431.4867771094159 8511.0450086134661 5974.8357153299876 5214.1687799912906 7022.3847510724827 8664.2561259466747 8575.8054986546704 7962.5004326375783 44319.453679149563 5556.300267502389 3721.7226201359226 3341.9204483510002 5054.6139033928048 6360.7121027859175 4816.6064076425755 8149.0102372749388 8185.3273406724838 17447.455030555342 8775.7070997780247 7044.1844891342444 7184.0546987365015 6366.2524512792297 3642.9740013233986 3377.6079587903296 3279.4239549212525 3239.3915977337747 5393.8616519770003 4607.9502014927639
leaf_count=5759547 86495 67700 186903 80411 51883 152632 535304 77756 96504 63041 316053 119317 151833 230273 78129 525659 48296 69868 65204 159525 81785 126557 58831 84009 226729 116936 157099 80867 50107 372955
internal_value=9.51518e-11 0.0356047 -0.0452588 0.048721 0.0118158 -0.0181612 -0.0548583 0.0386426 0.00354489 0.020538 0.0532528 -0.0117585 -0.0279224 -0.0443566 0.0547764 -0.0566011 0.00692654 0.0341242 0.0243947 0.0503547 0.0429002 -0.00868182 0.0158053 -0.0016971 -0.0408634 -0.0237362 -0.0323509 -0.0163444 0.00921201 -0.053191
internal_weight=302698 169418 133280 109206 60212.2 34864.3 98415.3 33873.3 30905.5 29306.7 75332.6 21054 13810.2 14007.3 49374.1 84408 18786.3 16433.3 16147.8 25958.5 17440 12600.5 13158.9 12119.2 6984.89 7099.33 6710.91 8453.56 10210.5 10968.7
internal_count=10278208 1535597 8742611 931227 604370 1092144 7650467 297109 365411 238959 634118 479373 612771 992306 394182 6658161 194907 137568 128245 239936 159541 245874 110714 170504 457002 268769 344002 233499 98403 898614
is_linear=0
shrinkage=0.05


Tree=20
num_leaves=31
num_cat=0
split_feature=0 0 0 0 0 0 0 0 0 0 0 0 0 0 0 0 0 0 0 0 0 0 0 0 0 0 0 0 0 0
split_gain=177458 21613 12050 2000.21 1788.87 738.057 660.027 256.453 253.944 199.795 136.65 95.0356 88.8437 63.7865 60.0982 57.0173 42.6706 38.7694 35.8853 24.4949 22.8946 21.1177 16.9077 13.4131 10.406 9.03935 8.93742 8.19396 7.74676 6.7855
threshold=0.090190075337886824 0.32406619191169744 0.032770292833447463 0.54902809858322155 0.18484350293874743 0.053160659968853004 0.017818563617765907 0.42828112840652471 0.12525137513875964 0.23954955488443377 0.71261242032051098 0.070136219263076796 0.042254325002431876 0.91175416111946117 0.0094009465537965315 0.024807170033454898 0.14991775155067447 0.37465725839138037 0.27850711345672613 0.60635584592819225 0.48741348087787634 0.10899714380502702 0.20826912671327594 0.059362392872571952 0.04790309630334378 0.037505438551306731 0.028803754597902301 0.014140451326966287 0.080856826156377806 0.16565294563770297
decision_type=2 2 2 2 2 2 2 2 2 2 2 2 2 2 2 2 2 2 2 2 2 2 2 2 2 2 2 2 2 2
left_child=2 4 6 7 8 12 14 17 21 22 19 23 25 -12 -1 -8 -10 -3 -11 -5 -9 -2 -6 -7 -14 -4 -17 -16 -13 -18
right_child=1 3 5 10 9 11 15 20 16 18 13 28 24 -15 27 26 29 -19 -20 -21 -22 -23 -24 -25 -26 -27 -28 -29 -30 -31
leaf_value=-0.05677469194127234 -0.0040866515873753152 0.030665416686384207 -0.034371650525845253 0.047387027401746412 0.013068919758826758 -0.018744522988780987 -0.047134806881689098 0.040150045954592727 0.0038274719140126891 0.021035376589005433 0.054892978847531131 -0.010601652641412426 -0.026072514816123632 0.048775600095370249 -0.053892729108003384 -0.042257333915625403 0.007275667491898211 0.035618878502213333 0.025816363739118338 0.05075510957773896 0.043865861389450284 -0.00022607415757533878 0.016706122161987479 -0.014866139639627957 -0.02209248397705673 -0.030552372527147178 -0.038413838359206906 -0.051110306783798777 -0.0077904576455825507 0.0098801255185925023
leaf_weight=67707.980934216204 8144.8896986140753 7992.0047610680776 3217.0648188337964 8039.9196494470962 5858.3118288068363 3611.7765561283268 6632.5813849340193 8258.5952977382112 8442.9615569370435 7760.5322201384406 41624.952738665568 5455.0451741749894 3483.4683229488001 4747.2508901236579 6803.6259675088295 3175.5420699970746 4736.1745995572346 7810.5831024364888 7940.8673003544682 16429.312077709779 8323.207265888952 6268.4926574391138 7028.5276383543605 5824.0938742857943 3107.1813664736401 2988.2743930858505 2888.1391340583905 4329.9392894030825 4449.5545833494616 5298.7610855641033
leaf_count=5684708 128845 67700 187441 80411 51883 115128 535304 77756 96504 63041 316053 119317 151639 78129 600498 230273 48296 69868 65204 159525 81785 84009 58831 157250 116775 154805 189961 372955 84207 50107
internal_value=-1.88207e-11 0.0339877 -0.0452637 0.0479657 0.0105182 -0.0189231 -0.0545111 0.0376715 0.00256676 0.0196665 0.0526715 -0.0127597 -0.0282388 0.0542667 -0.0562149 -0.043931 0.00644697 0.0331137 0.0234533 0.0496484 0.0420152 -0.00240766 0.0150527 -0.0163507 -0.0241961 -0.0325324 -0.0404267 -0.0528106 -0.00933875 0.0086509
internal_weight=288380 164705 123674 103226 61479.5 32136.5 91537.8 32384.4 32891.3 28588.2 70841.4 19340.5 12796 46372.2 78841.5 12696.3 18477.9 15802.6 15701.4 24469.2 16581.8 14413.4 12886.8 9435.87 6590.65 6205.34 6063.68 11133.6 9904.6 10034.9
internal_count=10278208 1577947 8700261 931227 646720 1086562 7613699 297109 407761 238959 634118 475902 610660 394182 6658161 955538 194907 137568 128245 239936 159541 212854 110714 272378 268414 342246 420234 973453 203524 98403
is_linear=0
shrinkage=0.05


Tree=21
num_leaves=31
num_cat=0
split_feature=0 0 0 0 0 0 0 0 0 0 0 0 0 0 0 0 0 0 0 0 0 0 0 0 0 0 0 0 0 0
split_gain=161427 20699.5 11702.3 2000.45 1643.75 792.144 547.812 251.29 230.244 186.336 140.033 107.95 87.9148 61.5122 59.9102 38.9738 37.3973 34.3721 33.7543 25.3148 23.0366 19.0334 15.7073 13.1574 11.2143 10.9408 8.51497 7.86242 7.39009 6.19745
threshold=0.090190075337886824 0.32406619191169744 0.031060464680194858 0.54902809858322155 0.18484350293874743 0.05128175579011441 0.015536461956799032 0.42828112840652471 0.12525137513875964 0.23954955488443377 0.71261242032051098 0.067027013748884215 0.041057424619793899 0.91175416111946117 0.023630563169717792 0.14991775155067447 0.37465725839138037 0.0076137427240610131 0.27850711345672613 0.60635584592819225 0.48741348087787634 0.10899714380502702 0.20826912671327594 0.076875746250152602 0.057258807122707374 0.035498037934303291 0.046396570280194289 0.020010780543088916 0.027365733869373802 0.16565294563770297
decision_type=2 2 2 2 2 2 2 2 2 2 2 2 2 2 2 2 2 2 2 2 2 2 2 2 2 2 2 2 2 2
left_child=2 4 6 7 8 12 17 16 21 22 19 24 25 -12 27 -10 -3 -1 -11 -5 -9 -2 -6 -13 -7 -4 -14 -8 -16 -17
right_child=1 3 5 10 9 11 14 20 15 18 13 23 26 -15 28 29 -18 -19 -20 -21 -22 -23 -24 -25 -26 -27 -28 -29 -30 -31
leaf_value=-0.056541785518909739 -0.0040991761159423689 0.029694442317789296 -0.035218538837621376 0.046593099854393333 0.012418929435503094 -0.019284688647954053 -0.049184154152718186 0.039234205453519772 0.0034854363251363204 0.0201875655439081 0.054411353516454812 -0.011559743950915238 -0.026344759480977809 0.04821196173082528 -0.042788827385328652 0.0068086321507093281 0.034655139156637274 -0.053507934268877691 0.024889312390257393 0.050118118253171987 0.043056641409470429 -0.00040467895270319509 0.015961250882108941 -0.0081313718073522182 -0.015606075257294126 -0.031076148485139295 -0.022584404776165135 -0.045942052907594316 -0.03913887041611526 0.0093196541130309285
leaf_weight=60104.09977437168 8016.2699295946295 7712.116521859396 2968.4914095093573 7593.9597787664679 5743.1726401743217 3418.6458325955755 4580.1960146353722 7872.8269866131595 8308.7387579948627 7564.7131407313718 39069.162144718633 5015.7867464339288 3227.5923396840499 4457.8773543289863 2923.8639045298005 4655.5624723519795 7488.0977975982678 11052.744907134802 7705.5829000852245 15466.472763713085 7893.8166086031997 6168.9119507087817 6876.2657379123993 6330.9090502843101 5258.6571490428432 3442.5455671180553 2821.4608811642993 3160.2938301777394 2638.0323541934104 5203.9987437761447
leaf_count=5416920 128845 67700 190755 80411 51883 117980 411218 77756 96504 63041 316053 119240 150694 78129 230295 48296 69868 1018648 65204 159525 81785 84009 58831 125090 153160 192592 114710 269301 189658 50107
internal_value=-1.43286e-10 0.0329939 -0.0445203 0.0472248 0.00994931 -0.0190165 -0.0543295 0.0367255 0.00228107 0.0188448 0.0521075 -0.0128573 -0.0289146 0.0537764 -0.0450161 0.00600811 0.0321382 -0.0560705 0.0225601 0.0489573 0.041148 -0.0024925 0.0143491 -0.00964688 -0.0170554 -0.0329942 -0.0245908 -0.0478605 -0.0410576 0.00813398
internal_weight=274741 157798 116943 97554.3 60243.2 32484.1 84459.2 30966.9 32353.5 27889.7 66587.5 20024 12460.1 43527 13302.4 18168.3 15200.2 71156.8 15270.3 23060.4 15766.6 14185.2 12619.4 11346.7 8677.3 6411.04 6049.05 7740.49 5561.9 9859.56
internal_count=10278208 1577947 8700261 931227 646720 1164221 7536040 297109 407761 238959 634118 515470 648751 394182 1100472 194907 137568 6435568 128245 239936 159541 212854 110714 244330 271140 383347 265404 680519 419953 98403
is_linear=0
shrinkage=0.05


Tree=22
num_leaves=31
num_cat=0
split_feature=0 0 0 0 0 0 0 0 0 0 0 0 0 0 0 0 0 0 0 0 0 0 0 0 0 0 0 0 0 0
split_gain=146838 19814.8 11360.5 2246 1174.14 730.048 549.799 348.062 232.775 143.16 98.3223 84.0563 82.4007 59.6963 55.5534 51.1553 49.3363 35.4195 33.7355 25.9685 23.9236 23.0509 11.9796 10.523 10.4788 9.72815 7.80719 7.24251 6.77556 5.95716
threshold=0.090190075337886824 0.37465725839138037 0.031060464680194858 0.20826912671327594 0.54902809858322155 0.05128175579011441 0.015887115150690082 0.13590106368064883 0.27850711345672613 0.71261242032051098 0.067027013748884215 0.42828112840652471 0.041057424619793899 0.91175416111946117 0.023630563169717792 0.16565294563770297 0.0076137427240610131 0.10899714380502702 0.32406619191169744 0.60635584592819225 0.23954955488443377 0.48741348087787634 0.076875746250152602 0.059362392872571952 0.035498037934303291 0.18484350293874743 0.044950058683753021 0.027365733869373802 0.01910103298723698 0.12525137513875964
decision_type=2 2 2 2 2 2 2 2 2 2 2 2 2 2 2 2 2 2 2 2 2 2 2 2 2 2 2 2 2 2
left_child=2 3 6 7 11 12 16 17 20 19 23 -3 24 -11 28 -9 -1 -2 -10 -6 -5 -13 -12 -7 -4 -17 -14 -16 -8 -19
right_child=1 4 5 8 9 10 14 15 18 13 22 21 26 -15 27 25 -18 29 -20 -21 -22 -23 -24 -25 -26 -27 -28 -29 -30 -31
leaf_value=-0.056303702690545625 -0.0041067774849903151 0.033717953129029636 -0.034439211297487067 0.015261216795444059 0.045814667408985266 -0.018242954237692302 -0.048847309870123423 0.0052756281943092641 0.02400455891075599 0.053946444081367666 -0.011277550685422671 0.038338640342537873 -0.026209689675099093 0.047643570221561543 -0.042079375986895672 0.0087979447384919224 -0.052563721275734068 -0.00056423943311028387 0.028759039718575432 0.049490361529394948 0.019384408392385085 0.04225947685684113 -0.0079750562569163106 -0.014712763538748452 -0.030301423575129632 0.011811259175773874 -0.022469234931713059 -0.038373282144945703 -0.045703952546259335 0.0019832711373895975
leaf_weight=56286.771894686419 7885.1297465725656 7181.1442778392957 2842.4159311211897 6727.2163331406191 7172.6741229712934 4482.9856847369811 3127.9105242842925 9056.8176924376749 7479.3515200979527 36652.666931898566 4917.1575158212836 7506.9947973340459 2288.1523978455771 4185.7532009117131 2772.1980414832651 5109.5090823277715 10456.006419385172 6067.7939190289326 7444.5947519708425 14557.933624876372 7374.6502565508708 7487.4806662876217 6218.9123911890019 3989.6099117049926 3314.0648054732774 5629.4067577111782 3574.0691686319387 2513.4507938459792 3793.4597233888999 3690.5689490826335
leaf_count=5416920 128845 69868 190755 58831 80411 154696 299870 99496 65204 316053 119240 77756 112781 78129 230295 50107 1054641 84009 67700 159525 63041 81785 125090 116444 192592 51883 152623 189658 344656 45304
internal_value=5.40721e-11 0.0320227 -0.0437898 0.0115849 0.0480521 -0.0184688 -0.0539334 0.00349198 0.0220237 0.0515558 -0.0125215 0.0381662 -0.0281719 0.0533004 -0.0441769 0.00804335 -0.0557178 -0.00161458 0.0263763 0.0482771 0.0174175 0.0402965 -0.00943328 -0.0165806 -0.0322118 0.0103775 -0.0239292 -0.040317 -0.0471245 0.000399218
internal_weight=261787 151210 110577 66465 84744.6 31627.4 78949.8 37439.2 29025.8 62569 19608.7 22175.6 12018.7 40838.4 12207 19795.7 66742.8 17643.5 14923.9 21730.6 14101.9 14994.5 11136.1 8472.6 6156.48 10738.9 5862.22 5285.65 6921.37 9758.36
internal_count=10278208 1577947 8700261 714420 863527 1164221 7536040 459644 254776 634118 515470 229409 648751 394182 1064479 201486 6471561 258158 132904 239936 121872 159541 244330 271140 383347 101990 265404 419953 644526 129313
is_linear=0
shrinkage=0.05


Tree=23
num_leaves=31
num_cat=0
split_feature=0 0 0 0 0 0 0 0 0 0 0 0 0 0 0 0 0 0 0 0 0 0 0 0 0 0 0 0 0 0
split_gain=133606 18960.3 11038.8 2070.12 1171.43 673.336 556.4 317.325 218.077 145.999 106.423 82.1563 60.8044 58.1895 54.8122 48.4111 46.969 32.0335 31.9079 26.4774 22.9155 22.2039 13.8954 11.253 9.00788 8.32436 7.01657 6.57147 5.64711 5.42436
threshold=0.090190075337886824 0.37465725839138037 0.031060464680194858 0.20826912671327594 0.54902809858322155 0.049556843936443336 0.015887115150690082 0.13590106368064883 0.27850711345672613 0.71261242032051098 0.067027013748884215 0.42828112840652471 0.039756024256348617 0.91175416111946117 0.024230727925896648 0.0076137427240610131 0.16565294563770297 0.10899714380502702 0.32406619191169744 0.60635584592819225 0.48741348087787634 0.23954955488443377 0.057258807122707374 0.073359411209821715 0.18484350293874743 0.020010780543088916 0.034544339403510101 0.044950058683753021 0.76215851306915294 0.12525137513875964
decision_type=2 2 2 2 2 2 2 2 2 2 2 2 2 2 2 2 2 2 2 2 2 2 2 2 2 2 2 2 2 2
left_child=2 3 6 7 11 12 15 17 21 19 22 -3 26 28 25 -1 -9 -2 -10 -6 -13 -5 -7 -12 -18 -8 -4 -14 -11 -19
right_child=1 4 5 8 9 10 14 16 18 13 23 20 27 -15 -16 -17 24 29 -20 -21 -22 -23 -24 -25 -26 -27 -28 -29 -30 -31
leaf_value=-0.056055841566015077 -0.0041000166126261934 0.032808190839250594 -0.034167740473335061 0.014606379728621577 0.045047587925660888 -0.018644787731417933 -0.047920598416196523 0.0049193947587528354 0.023159627166789411 0.052459971952401131 -0.01175790804945021 0.037461123908515852 -0.02603275631121206 0.047070880406734038 -0.039257923159826132 -0.052224394169554128 0.008319018411149166 -0.00070566366791308165 0.027858469722272614 0.048868537771576806 0.041469217697034655 0.018625395050186077 -0.01474576628021069 -0.0082080403615135723 0.011246665641509411 -0.044454035219170518 -0.030435436122207667 -0.022554570805636484 0.053890650134481161 0.0017458047156865206
leaf_weight=52424.39474601968 7753.406511663874 6889.9288011938625 2151.4491790132488 6582.1287393922903 6775.7909145057201 4192.9401514732344 3701.3431589273041 8902.9736485428803 7262.3912101081296 9551.0794359802967 3128.0332590265862 7160.8088653309096 2938.020040387617 3930.2876476757228 4587.2634726515298 9782.8862516916997 5015.716729478132 5966.9921765310792 7189.5952113317107 13703.154085778238 7103.8297447923396 7191.2125748544349 5021.9445048382731 7797.558395226024 5517.7860389000489 3254.4804508883244 3036.5392067480261 2525.1493874266635 24824.374093148333 3628.7717269112909
leaf_count=5416920 128845 69868 152802 58831 80411 156469 375225 99496 65204 78315 80097 77756 154187 78129 380132 1054641 50107 84009 67700 159525 81785 63041 153160 164233 51883 309122 189139 114134 237738 45304
internal_value=-1.03246e-10 0.0310735 -0.0430842 0.0110209 0.0473813 -0.0179392 -0.0535825 0.00320547 0.0212067 0.0510123 -0.0125623 0.0372916 -0.0281065 0.0528342 -0.0435007 -0.0554533 0.00759293 -0.00170986 0.0254972 0.0476043 0.0394572 0.0167048 -0.0165199 -0.00922438 0.00985261 -0.0462987 -0.0319832 -0.0244251 0.0534931 0.000221393
internal_weight=249492 144950 104542 65011 79939.3 30791.6 73750.4 36785.6 28225.3 58784.7 20140.5 21154.6 10651.2 38305.7 11543.1 62207.3 19436.5 17349.2 14452 20478.9 14264.6 13773.3 9214.88 10925.6 10533.5 6955.82 5187.99 5463.17 34375.5 9595.76
internal_count=10278208 1577947 8700261 714420 863527 1164221 7536040 459644 254776 634118 553959 229409 610262 394182 1064479 6471561 201486 258158 132904 239936 159541 121872 309629 244330 101990 684347 341941 268321 316053 129313
is_linear=0
shrinkage=0.05


Tree=24
num_leaves=31
num_cat=0
split_feature=0 0 0 0 0 0 0 0 0 0 0 0 0 0 0 0 0 0 0 0 0 0 0 0 0 0 0 0 0 0
split_gain=121602 19000.6 9705.96 2076.18 1166.74 581.794 512.628 330.924 213.459 176.539 79.9934 74.5677 74.1704 65.1484 51.6096 48.2979 45.7046 33.8592 32.3405 30.128 25.0895 22.653 12.5707 9.93462 8.8318 8.18505 6.61704 6.34988 5.82653 4.69315
threshold=0.085307437926530852 0.37465725839138037 0.030293190851807598 0.18484350293874743 0.54902809858322155 0.049556843936443336 0.015887115150690082 0.27850711345672613 0.12525137513875964 0.76215851306915294 0.42828112840652471 0.91175416111946117 0.064201176166534438 0.039756024256348617 0.23954955488443377 0.0076137427240610131 0.023630563169717792 0.60635584592819225 0.14991775155067447 0.32406619191169744 0.10187816619873048 0.48741348087787634 0.20826912671327594 0.073359411209821715 0.034544339403510101 0.055139226838946349 0.01910103298723698 0.043585527688264854 0.02668743766844273 0.66067773103714
decision_type=2 2 2 2 2 2 2 2 2 2 2 2 2 2 2 2 2 2 2 2 2 2 2 2 2 2 2 2 2 2
left_child=2 3 6 8 10 13 15 14 20 17 -3 -11 25 24 22 -1 26 -6 -10 -9 -2 -12 -5 -14 -4 -7 -8 -15 -18 -19
right_child=1 4 5 7 9 12 16 19 18 11 21 -13 23 27 -16 -17 28 29 -20 -21 -22 -23 -24 -25 -26 -27 -28 -29 -30 -31
leaf_value=-0.05583458065695647 -0.0054044539365530851 0.031937157410038115 -0.033748257604787953 0.010722731055538932 0.044310080157618476 -0.01873131508930698 -0.047772398315125343 0.022356784512840174 0.0025423014007477738 0.054078650651815822 0.036614036156422274 0.046480831236074882 -0.011875971647329954 -0.0259197619338217 0.017911481754146429 -0.051875987604426514 -0.041174977085694425 0.04749085516295317 0.0068887740969264246 0.02699556882838754 -0.0013732113917579569 0.040698643939408204 0.013992337561740845 -0.0087013019765751522 -0.029706161990107411 -0.015365875086715703 -0.04447333001605186 -0.022378024160602406 -0.037498605481550713 0.049106147765961339
leaf_weight=48808.876311556589 6971.2447111132424 6614.5151121206582 2515.061486985971 5408.1479533456295 6404.3475347119238 2957.0099051651923 2762.0082227585754 7054.717175034828 7898.6806516456418 25834.913686457206 6834.9934954789351 3690.6628088104771 4451.3934582581896 2096.5108043595883 7014.1087363492406 9149.6718926639078 2053.4746043768628 7150.960602582054 9340.7347329924887 6947.1892095679577 8647.5036217581801 6743.2798542180681 6440.8393649960344 5520.4259035199357 2920.7140422407065 4644.1037043290235 3379.8279139232582 3192.8549780342564 2268.117421346411 12115.337882200925
leaf_count=5416920 127163 69868 189535 51883 80411 116936 299870 65204 96504 237738 77756 78129 120158 116488 63041 1054641 191653 80360 98403 67700 127775 81785 58831 122149 189139 152632 344656 151833 191567 157480
internal_value=9.23944e-12 0.0295993 -0.0431846 0.0099491 0.04673 -0.0185554 -0.0533708 0.0188349 0.00106142 0.0504923 0.0364461 0.0531289 -0.0129545 -0.0277323 0.0145122 -0.0552097 -0.043185 0.0474597 0.00489733 0.0246584 -0.00317251 0.0386425 0.0125 -0.0101185 -0.0315764 -0.0166751 -0.0459569 -0.0237818 -0.0392455 0.0485066
internal_weight=237832 141112 96720.1 65723.2 75389 28298.1 68422 32865 32858.2 55196.2 20192.8 29525.6 17572.9 10725.1 18863.1 57958.5 10463.4 25670.6 17239.4 14001.9 15618.7 13578.3 11849 9971.82 5435.78 7601.11 6141.84 5289.37 4321.59 19266.3
internal_count=10278208 1620031 8658177 756504 863527 1158870 7499307 306659 449845 634118 229409 315867 511875 646995 173755 6471561 1027746 318251 194907 132904 254938 159541 110714 242307 378674 269568 644526 268321 383220 237840
is_linear=0
shrinkage=0.05


Tree=25
num_leaves=31
num_cat=0
split_feature=0 0 0 0 0 0 0 0 0 0 0 0 0 0 0 0 0 0 0 0 0 0 0 0 0 0 0 0 0 0
split_gain=110757 18159.2 9437.72 1911.18 1176.07 621.467 430.569 308.65 196.456 194.867 81.5551 77.8799 63.4705 52.0836 56.516 47.8766 45.8939 30.7424 29.4359 28.3571 22.7331 22.3865 11.6674 11.1983 9.27831 9.08678 7.64533 6.31115 5.81143 4.36467
threshold=0.085307437926530852 0.37465725839138037 0.028803754597902301 0.18484350293874743 0.54902809858322155 0.04790309630334378 0.014140451326966287 0.27850711345672613 0.66067773103714 0.12525137513875964 0.064201176166534438 0.42828112840652471 0.037505438551306731 0.91175416111946117 0.76215851306915294 0.23954955488443377 0.021464614197611812 0.0069221593439579019 0.14991775155067447 0.32406619191169744 0.10187816619873048 0.48741348087787634 0.20826912671327594 0.055139226838946349 0.042254325002431876 0.073359411209821715 0.032770292833447463 0.024807170033454898 0.017818563617765907 0.16565294563770297
decision_type=2 2 2 2 2 2 2 2 2 2 2 2 2 2 2 2 2 2 2 2 2 2 2 2 2 2 2 2 2 2
left_child=2 3 6 9 11 12 17 15 -6 20 23 -3 26 14 -10 22 28 -1 -11 -9 -2 -13 -5 -7 -14 -12 -4 -18 -8 -20
right_child=1 4 5 7 8 10 16 19 13 18 25 21 24 -15 -16 -17 27 -19 29 -21 -22 -23 -24 -25 -26 -27 -28 -29 -30 -31
leaf_value=-0.055673229391414086 -0.0053405491751144117 0.031076337682383572 -0.034568738345224996 0.010229464429428792 0.044467831737164509 -0.018670602640609178 -0.048506242640354143 0.021585873695386899 0.049540151875611643 0.0023169386048523285 -0.011586803069280274 0.035775460461015922 -0.026880771669820044 0.045913118980060674 0.053724709613685986 0.017231178235321127 -0.042337798179434311 -0.052298335716887669 0.0053493233720564816 0.026156743018789716 -0.0014690066439362979 0.039935983312792904 0.013412208290284045 -0.014969294170787076 -0.022743445170281099 -0.0085192481683818971 -0.030615571616595741 -0.03866358419887788 -0.045357259773689082 0.0075337564383976142
leaf_weight=44481.680723245561 6844.8888525895309 6354.8028234954254 2293.6136451667007 5300.8043376814385 12000.606586169524 3719.9192603862648 3146.8421300024766 6856.787267020758 12115.223599854246 7762.3737551981758 4356.7240653006193 6528.5930203047756 2489.8247732937216 3467.644653843352 24159.021856965963 6844.1038997739088 2226.8196421814446 7954.3959869058963 4339.1890556311337 6717.2842632314059 8500.3647383028219 6405.3216075953096 6303.7496541885048 4534.6175903759722 2973.3430424777234 5414.3912167493436 2620.329328650605 2459.7355182365154 2741.6449305124024 4834.4391736903053
leaf_count=5306535 127163 69868 189961 51883 160771 155654 372955 65204 157480 96504 120158 77756 154805 78129 237738 63041 232623 978671 48296 67700 127775 81785 58831 152632 151639 122149 187441 230273 302681 50107
internal_value=5.50265e-11 0.0287199 -0.0425189 0.0094705 0.0461463 -0.0185898 -0.0533051 0.0181251 0.0500745 0.000885207 -0.0129782 0.0356089 -0.0283376 0.0517675 0.0523271 0.0139145 -0.0441016 -0.0551613 0.00458303 0.0238478 -0.00319594 0.0378359 0.0119584 -0.0166373 -0.024629 -0.009887 -0.0324607 -0.0404094 -0.0470401 0.0065005
internal_weight=226749 135335 91413.9 64304 71031.2 28402.8 63011.1 32022.7 51742.5 32281.3 18025.7 19288.7 10377.1 39741.9 36274.2 18448.7 10575 52436.1 16936 13574.1 15345.3 12933.9 11604.6 8254.54 5463.17 9771.12 4913.94 4686.56 5888.49 9173.63
internal_count=10278208 1620031 8658177 756504 863527 1234439 7423738 306659 634118 449845 550593 229409 683846 473347 395218 173755 1138532 6285206 194907 132904 254938 159541 110714 308286 306444 242307 377402 462896 675636 98403
is_linear=0
shrinkage=0.05


Tree=26
num_leaves=31
num_cat=0
split_feature=0 0 0 0 0 0 0 0 0 0 0 0 0 0 0 0 0 0 0 0 0 0 0 0 0 0 0 0 0 0
split_gain=100894 17318.3 9167.98 1761.4 1190.65 575.189 433.656 291.545 177.943 166.814 82.6827 74.9138 73.2032 60.0524 45.1948 36.5844 35.0527 33.6144 27.4167 26.6713 24.9245 17.7421 15.424 10.3025 8.69867 8.31665 7.48248 6.8571 6.26441 5.86519
threshold=0.085307437926530852 0.37465725839138037 0.028803754597902301 0.20826912671327594 0.60635584592819225 0.04790309630334378 0.014140451326966287 0.13590106368064883 0.27850711345672613 0.48741348087787634 0.76215851306915294 0.064201176166534438 0.91175416111946117 0.037505438551306731 0.021464614197611812 0.16565294563770297 0.10899714380502702 0.0069221593439579019 0.42828112840652471 0.32406619191169744 0.66067773103714 0.23954955488443377 0.54902809858322155 0.055139226838946349 0.042254325002431876 0.073359411209821715 0.033621761947870261 0.18484350293874743 0.024807170033454898 0.017818563617765907
decision_type=2 2 2 2 2 2 2 2 2 2 2 2 2 2 2 2 2 2 2 2 2 2 2 2 2 2 2 2 2 2
left_child=2 3 6 7 9 13 17 16 21 18 20 23 -12 26 29 -9 -2 -1 -3 -10 -6 -5 -11 -7 -15 -13 -4 -17 -16 -8
right_child=1 4 5 8 10 11 14 15 19 22 12 25 -14 24 28 27 -18 -19 -20 -21 -22 -23 -24 -25 -26 -27 -28 -29 -30 -31
leaf_value=-0.05551093892913405 -0.0045709820198680902 0.030239920771420431 -0.033537045219455441 0.012867738446371521 0.045119687898529402 -0.018191320786512467 -0.048058192425526336 0.0040384674403648726 0.0208497837110381 0.039179604552122438 0.053356278425738549 -0.011310907964271892 0.045347019363694563 -0.02623676694123947 -0.041745196722705824 0.0071401610451311912 -0.00021966216861647487 -0.05184316742652622 0.034952084733772676 0.025351005511981356 0.049198928375058563 0.016586350577778224 0.042794659983083093 -0.014594402325183334 -0.022162149324518238 -0.0083454678774377358 -0.029518534409051268 0.009769209407086912 -0.037986289498218202 -0.04479683400954166
leaf_weight=41481.283248393767 9405.4433791688789 6109.2160589274135 2649.7721863188763 6170.5906369774821 5594.0289501545485 3617.7382515938771 2954.3502144562699 8442.6684810036604 6667.4263577920428 6087.1408965391456 22605.212243029033 4262.8990412437597 3264.9457985015761 2401.658094374774 2106.991770714887 4745.0419153867624 9112.2986653130283 7354.3627513662868 6239.5405902370403 6498.6205605504801 11326.591260316127 6680.1367847387301 5726.1840723390778 4426.7143829679953 2881.2506555528598 5308.7411200423303 2058.1440468930668 5196.1567630418795 2338.6876346657846 2584.5650765834853
leaf_count=5306535 170929 69868 226729 58831 80360 155654 372955 99496 65204 81785 237738 120158 78129 154805 232623 50107 129313 978671 77756 67700 157480 63041 80411 152632 151639 122149 150673 51883 230273 302681
internal_value=-5.81242e-11 0.0278577 -0.0418609 0.0090229 0.0455576 -0.0180905 -0.0530174 0.00199841 0.0189863 0.0366843 0.050568 -0.0126554 0.0523455 -0.0276739 -0.0435226 0.00645882 -0.00242976 -0.0549586 0.0326209 0.0230715 0.0478503 0.0148008 0.0409319 -0.016212 -0.0240145 -0.00966618 -0.0317803 0.00851434 -0.0397678 -0.0465364
internal_weight=216298 129871 86427.2 62918.4 66952.9 27606.9 58820.2 36901.6 26016.8 24162.1 42790.8 17616.1 25870.2 9990.82 9984.59 18383.9 18517.7 48835.6 12348.8 13166 16920.6 12850.7 11813.3 8044.45 5282.91 9571.64 4707.92 9941.2 4445.68 5538.92
internal_count=10278208 1620031 8658177 756504 863527 1234439 7423738 501728 254776 309820 553707 550593 315867 683846 1138532 201486 300242 6285206 147624 132904 237840 121872 162196 308286 306444 242307 377402 101990 462896 675636
is_linear=0
shrinkage=0.05


Tree=27
num_leaves=31
num_cat=0
split_feature=0 0 0 0 0 0 0 0 0 0 0 0 0 0 0 0 0 0 0 0 0 0 0 0 0 0 0 0 0 0
split_gain=91931.8 17161 8098.57 1764.06 1193.44 501.194 399.52 267.828 198.603 161.948 78.0513 72.0315 64.1996 53.6171 41.1345 37.8547 33.4615 28.0626 26.3362 25.0461 24.9823 24.115 14.914 10.1942 10.0688 7.46318 7.0634 6.37144 5.50857 4.75812
threshold=0.080856826156377806 0.37465725839138037 0.028079895302653316 0.18484350293874743 0.60635584592819225 0.046396570280194289 0.014140451326966287 0.27850711345672613 0.12525137513875964 0.48741348087787634 0.76215851306915294 0.91175416111946117 0.061747688800096519 0.036470601335167892 0.23954955488443377 0.02095863223075867 0.0069221593439579019 0.10187816619873048 0.42828112840652471 0.32406619191169744 0.14991775155067447 0.66067773103714 0.54902809858322155 0.053160659968853004 0.20826912671327594 0.041057424619793899 0.070136219263076796 0.032770292833447463 0.024807170033454898 0.017818563617765907
decision_type=2 2 2 2 2 2 2 2 2 2 2 2 2 2 2 2 2 2 2 2 2 2 2 2 2 2 2 2 2 2
left_child=2 3 6 8 9 13 16 14 17 18 21 -12 23 27 24 29 -1 -2 -3 -9 -10 -6 -11 -7 -5 -15 -14 -4 -17 -8
right_child=1 4 5 7 10 12 15 19 20 22 11 -13 26 25 -16 28 -18 -19 -20 -21 -22 -23 -24 -25 -26 -27 -28 -29 -30 -31
